genre,0,1,2,3,4,5,6,7,8,9,10,11,12,13,14,15,16,17,18,19,20,21,22,23,24,25,26,27,28,29,30,31,32,33,34,35,36,37,38,39,40,41,42,43,44,45,46,47,48,49,50,51,52,53,54,55,56,57,58,59,60,61,62,63,64,65,66,67,68,69,70,71,72,73,74,75,76,77,78,79,80,81,82,83,84,85,86,87,88,89,90,91,92,93,94,95,96,97,98,99,100,101,102,103,104,105,106,107,108,109,110,111,112,113,114,115,116,117,118,119,120,121,122,123,124,125,126,127,128,129,130,131,132,133,134,135,136,137,138,139,140,141,142,143,144,145,146,147,148,149
Astley,0.06093623500143926,-0.0573970826216568,-0.09486090924544181,0.10449295784912598,-0.031016092838396184,-0.039761021924830046,0.06636164004875528,0.1905228625524596,-0.03826721187695249,0.07971127836026959,0.3051766072039159,0.017692398755479274,-0.06133583591402686,0.09833820951415194,0.0012832005031400303,0.06951102587026553,0.015835860364481195,-0.09091288651380902,-0.13416443852343518,0.047610379264655514,0.038107877600583456,0.02716173154700539,0.06649665844377839,0.10876469641299957,-0.14231550979727575,0.06245315383843636,0.06790576359512145,0.0330009212831387,0.057613528725962704,0.046020804572803616,0.09101495008252833,-0.10324738678073789,-0.017735005063648057,0.10540510350552185,0.06847343026998949,-0.07244450230571156,0.03025806379466179,0.05686551009258464,0.23807583678993263,-0.12564812727783364,-0.18072182818418098,-0.1192190030125886,0.26208466373956985,0.05744783259394727,0.052635383456572975,-0.1472641206578771,0.008408177362282738,-0.020318640812706224,0.04506674965071683,0.04599666516755934,-0.03803614257247532,-0.0740940845401441,0.07513823751506234,-0.02819588026265189,0.08545515601791477,-0.12738565308283928,-0.017275154500457513,-0.013336713514590615,-0.04831895361240109,-0.16724732119358432,-0.002477713172387012,0.16146697273646823,-0.07050343559017339,-0.11739254630402848,-0.12112985627062355,-0.02769151838485141,-0.007254624257072374,-0.03280471178927442,0.1364368174129257,0.08017943963537799,-0.028718706365241382,-0.05572248998269013,0.0034190221244612823,-0.05803833124351067,-0.032598432384149674,0.06591435401976181,0.062247728477445176,-0.006987483980087932,0.025326457871465227,0.048592311809770236,-0.14589134823290723,-0.01393213049190651,0.05752596787249502,-0.07138135832972703,0.010208457535366365,-0.16440508925758188,0.13470520930020885,0.14912197342899822,0.1527060800062123,-0.03262062213251866,-0.10464218333430134,0.02241440971371527,0.13683576506153775,0.08327718216315368,-0.09595644075376152,-0.06132827255524413,0.01743073043282484,-0.16000442423896558,-0.06282143244128587,0.15069623991637524,-0.023360557730927847,-0.08854147572465029,-0.028813568021148275,-0.1027643757756484,0.2256444896059415,-0.08543436873202823,-0.04593002800285048,0.07423755560868177,-0.13603731338843503,-0.22354989254323743,0.042873078238138546,-0.08062697911185636,0.06700298626937919,-0.05753212545877344,-0.16207101003374424,0.08075441480191493,-0.021090756518981874,-0.036253331227205574,-0.1021322054019014,0.09074418474401051,-0.1082325569159673,0.02675118684185628,0.011470951198734055,0.11756210602292926,0.10585246677044152,0.0969204790366291,-0.053298043389339037,0.014686413488100247,-0.15859957462867413,-0.09014802527132984,0.1279735856667799,-0.0521736389122639,0.021918686961966537,0.14923136470519371,0.03753102308593966,-0.007590630143586125,-0.15129978469243605,-0.10999580920262615,0.1165880795171719,0.03573398431206745,0.04914399152047629,0.05485139542925099,0.10092143882676803,-0.1838957862262974,0.1398856230654555,-0.07966190384760509,0.04836008266619955,-0.013717084601199327,-0.0845093057722823,0.13045315792631101
DnB,0.12856661278312814,-0.006564412348743866,-0.2680997378219072,0.2051913642569024,-0.05958668321439734,0.055571813838040454,0.09557428668942103,0.10204928544834152,-0.07590508004964101,0.052573849519082394,0.26901237511634934,-0.1256417074154496,-0.1862305172199844,0.06812244523735582,-0.10935621811976338,0.10407058144585883,0.005286218119763001,-0.04344533974557837,-0.2898515116351238,0.22017141079738944,0.013656886441203608,-0.044098328265590465,0.08139722928948438,0.2394941120074545,-0.09942983555693728,0.16109146261247204,0.013104129072293056,0.06589877381321758,0.03658309587340997,0.1317621399317419,-0.17544560719826244,-0.14201185851691495,0.06315778901644553,-0.05644174650946385,0.02314737821905029,-0.18189054576481153,0.0412600806701853,0.12180413186472343,0.31731473565000656,-0.3024142894818489,-0.17504509152963485,-0.22011599069190535,0.44907294725409697,0.0363906720446787,0.08300145795842274,-0.26189484982934946,0.049356697797083106,-0.2812872786224046,-0.07859840893577415,0.3252599820043363,-0.1843387567483741,-0.15022548371082736,0.1844611061123203,-0.2849105243561807,0.008382594477194026,0.011295344709898372,-0.1319523025131881,-0.127482266521872,-0.014279285758609726,-0.28932640769469115,0.09984400713620568,0.31341820663977826,-0.15504777195159955,0.08037882562829934,-0.30951204933291676,-0.0644055618988521,-0.04070419950356485,-0.04343169004033634,-0.02608636487744297,0.2196703217499174,0.12408751442754955,-0.0613907694694397,0.005391675147378127,-0.26875982469748544,-0.06536092615575438,0.16232355662426082,0.2076211718895487,-0.022298860688799882,0.032095254731618436,-0.07524234719205648,-0.23224912627986874,-0.10579944958113363,0.033317869686626714,0.2186740515048106,-0.09965366739062721,-0.2745748907849777,-0.01045571889543953,0.15800604281725253,0.1360135752404615,-0.00829057306857055,-0.23463086751473186,0.12998177846726516,0.11034042258764758,-0.0556649587341005,-0.23227209897611187,-0.024875411728203456,0.005615511324852266,-0.19843643003413047,-0.06268796214706836,0.2365998864412003,-0.139567939497369,-0.06264367080359992,0.1728821632019874,-0.050326700279244414,0.056701234253800255,-0.029743974868134754,-0.2367378591374517,0.13153561619608917,0.008277301892646626,-0.23208200589513717,0.11042983028234622,0.07718893329196443,0.06273407725721515,0.09204822835867273,-0.20096685138070758,0.044075688488985146,0.12266798727893295,0.14495406856965143,-0.08047424139001022,0.3225731424139014,-0.07542122184300282,0.07763268476574788,0.023186822215327772,0.30394980608128125,0.012775152032268595,0.3065703834936389,-0.10928270927706991,0.044813812907229564,-0.39507186472231737,-0.007301482159478802,0.30194392150171073,0.018126955321129387,-0.004887606267453665,0.030731709897610412,-0.14488178436239046,-0.13885626062674872,-0.44901819019545963,-0.1724369156065737,0.19374915947873814,0.19428444151412022,0.2765283080980394,0.16047304281725214,0.21444343841141691,-0.04198277040024777,-0.1544805771020782,-0.08418507973937184,0.02088490505739946,-0.06970251659944024,-0.06650126341917877,0.14570998976108954
Fonsi,0.0644509042919244,-0.037376703118821956,-0.17742898076810906,0.1949266336924226,0.12215241063671606,-0.0641672138063174,0.12204398155773981,0.27926409683609565,0.0050506839997743625,0.1574426587332797,0.3410943511927481,0.13698924347189229,-0.10064184400202741,-0.05657212892673845,0.09544117663978165,0.12133097089842505,0.029084149004565907,-0.027350134453777417,-0.1015193264903296,0.05468988178896756,0.12492583052282911,-0.008210231233433602,0.049788110484468656,0.15593687479554094,-0.20770974220289573,0.11322875951723399,0.00872977006372972,0.05671760915910547,0.10248273064123942,0.07059859573628317,0.021802180869663654,-0.1524168753595337,0.0020703299870287826,0.2397238003496546,0.019091917883932892,-0.16410146088771346,-0.03269232327562203,-0.05335949314759008,0.1584953787716481,-0.1378958951553875,-0.3248509583779982,-0.12085360820030386,0.3681879713495924,0.07340797574868513,0.10220289340703083,-0.22068173904459387,0.19961745411993148,-0.0067578407873209005,0.07503497388752212,0.07102010980768243,-0.22581169708422585,-0.12896614319553956,0.17206876600306723,0.08198721059161655,0.2258368962833092,-0.15608329265129103,-0.0518125374767462,-0.02233907427669165,-0.04995742614629367,-0.04341685020586077,0.013694077322204882,0.20714197642544901,-0.15520647290056036,-0.16218540460209266,-0.04315178472731928,-0.08099095849078583,-0.18064726794881175,-0.0007382179798067856,0.17866712074894603,0.1772405050476603,-0.05598167548360947,-0.09015278794203474,-0.09551443787717809,-0.01652707585584785,-0.13514356167164598,0.09136742874064156,0.1320651655292818,-0.03688276431109497,0.13968657740677948,0.0729306693926059,-0.11071218938580193,-0.02111261446054892,0.021008471885394855,0.007050214821498817,-0.06935058795330659,-0.09803244549092506,0.15564232051208,0.11179582606732885,0.07317495527608285,0.0015076205515776185,-0.09450165168348995,-0.08330594766229459,0.1857457739552166,0.04932504150922356,-0.0652282446562648,-0.05074300186115493,-0.06483517855732998,-0.09898300626020741,-0.10840116254020178,0.038610367999561454,0.05691347064463278,-0.04813565224747351,-0.17744880277479125,-0.012009324065193073,0.20657798465966112,-0.0721396007557394,-0.12823683892617377,0.1573002757317732,-0.08393614218036947,-0.2478834527663412,0.07471081676160307,-0.11090895567085267,0.045554264734079745,-0.14382308888387105,-0.17140080333879276,0.09322000208672859,-0.0843741642321319,-0.09902248869212686,-0.008310728610906246,-0.008453799503694341,-0.0687219719136008,0.03850890434830941,0.20887710659300973,0.1671234468445499,0.09929285031865862,0.034923735378708826,0.07042964046020754,0.03829642129603837,-0.25834208736113023,-0.2490330402120282,0.1549960887146831,-0.19106133466807704,-0.06547076904856661,0.12043844368618874,0.0356569611979096,-0.05397611781626297,-0.04748584067452666,-0.20037529332809445,0.2521481490609327,0.037873419322084476,0.08757376566466249,-0.011739971969996665,0.1860592209125355,-0.3174304274434166,0.1955176050420285,-0.10230967751396622,0.07806670266764032,0.1711724508487843,-0.16137992555413425,0.09181376515708473
alt rock,0.06302750803374126,-0.04321904363482612,-0.07040735165506853,0.10111540617109664,-0.06022661278618603,0.014563221970824188,0.10886553674514712,0.12647840297617846,-0.08281777646146268,0.061113792342542446,0.29745208071046564,-0.00037376029220415725,-0.09761382646056847,0.1487463323418074,-0.00971937431569988,0.07532666370910415,0.08102012799783816,-0.07739421526750412,-0.08715434490939236,0.021915478008841083,0.015093865536177227,0.017605484754483456,0.09628607388855877,0.12224569946275893,-0.10101964484498673,0.04291626710565777,0.1162122400976914,0.051004018669116545,0.08506680385924079,0.06720106075320495,0.09161472841136281,-0.13433198268672078,-0.003888269580173227,0.1020556923865284,0.06725607315977483,-0.0637746618870831,0.08568899343236648,0.0654893284096883,0.2510987121744243,-0.0904643430873866,-0.12678666427684526,-0.11393059507459213,0.2740856887594744,0.029761917170896424,0.0664616222182443,-0.09410594989067793,-0.01863858513411264,-0.06727534057049714,0.045524630353739916,0.07222765237878369,0.02054835791760912,-0.03379488738326967,0.07195322977571283,-0.09586126459717556,0.0339819631785917,-0.12572566789542888,-0.04132402203353508,0.03739274858901709,-0.036317748029700156,-0.19402589214598068,0.04028337090899395,0.25896137277320963,-0.05893039890849788,-0.15884920033561226,-0.17823691796746022,-0.000433506864279661,-0.031154205733805982,-0.04655006293115386,0.1658787461823312,0.08412927621565713,0.011805337765462868,-0.038218001966067165,0.05810983447739597,0.01703623009779311,-0.021091941000994704,0.019298252733016,0.08972904253317601,0.010322522380984292,-0.03224854008410053,0.0310612945712651,-0.12778252069453064,-0.014351543151816502,0.04920368543754351,-0.0708869745173603,0.03826603899085363,-0.160234368087012,0.14826103371130012,0.22845628835103413,0.17848719138663366,-0.03375570158132507,-0.09157900433042195,0.08074654769398419,0.16713944057721222,0.14247457379535383,-0.12737415580241337,-0.03416314176878273,0.045960430179167004,-0.18720475503801687,-0.0653365126099154,0.17072195109402907,-0.02984543297571316,-0.09643623300452536,0.030306614659100593,-0.12169982944356476,0.24790817304770568,-0.08181756616835428,-0.05407743410280696,0.10133805510075765,-0.11816447225474133,-0.26188396107707224,0.03652918248842006,-0.037054904874499826,0.09060446237351609,-0.017972940484056597,-0.1622033814512189,0.06717106981239933,-0.023246954009257834,-0.040457246411083836,-0.11300254548217052,0.16439558985449929,-0.09693471834373155,-0.0065605532872233426,-0.01353873167403962,0.1500027056661065,0.1178418779936288,0.09117803731294244,-0.06547377756311273,0.041047709903200905,-0.1550242386316392,-0.04722389390010609,0.17014726413102368,-0.028808062337926325,0.0455201296927425,0.16812496382259515,0.03498996189046549,-0.03496729512212401,-0.19675522176744203,-0.12683413099775412,0.11537239977286198,0.010760943017899021,0.06683672286059497,0.04827008041392048,0.11868998315286869,-0.2062811721496801,0.11472396572095864,-0.09991064938721309,0.07220342712836077,-0.07652469107303139,-0.09364011245576236,0.11678083242648257
alt. metal,-0.028791220586816487,-0.017685471385689995,-0.06103671162970993,0.03993924005035378,-0.11664808224396303,-0.01915697853523205,0.13192827713759203,0.08487869794390848,-0.003462221490591139,0.044380133017004525,0.2814832268164201,0.030832948807332713,-0.10884299874114887,0.15210303737776895,-0.009993843872051503,0.08174591627126032,0.007838059100743545,-0.09855190103612073,-0.11801341483491205,0.03313541180078343,-0.024594402085149545,0.037917638617209634,0.07385209960943613,0.09134047212808248,-0.13705780575191456,0.09324192182304498,0.050448394919463874,-0.0288035511765253,0.05003105222554931,0.10768378235049243,0.04021438743099072,-0.07225725948161073,0.00039059801168406683,0.08435879526161055,0.09807390339238642,-0.10279221200090886,0.02415732784608655,0.044460107323839405,0.2689217889351783,-0.10252603963718733,-0.08095512523805426,-0.15751587424552185,0.36835061189116314,0.005294888641425506,0.04000238129821509,-0.04321919925116463,-0.008684304767440405,-0.06083982595783991,0.032432228559444415,0.17429993124817542,0.04925802717795074,-0.0376135356186035,0.042425885123143006,-0.07817757322228376,0.1439911600658392,-0.1966803273296644,-0.01339715770955762,0.009081160550010504,-0.11155647577547867,-0.24250086091473433,0.07227283941770238,0.24689037484265827,-0.0992334897195041,-0.16543625938481488,-0.20597612782029226,-0.10211954242922898,-0.04014375823892749,0.037141674058292586,0.16209644178691146,0.1395042754591448,0.07054297940672676,-0.10784446386495015,0.07782187837706755,-0.07866369394144782,-0.08256164610568173,0.07021593021529078,0.06486760863109621,0.06252364326522228,-0.014833819244051211,0.05874870075207255,-0.2336717075304043,0.006455907814466328,-0.0257096289661379,0.0051637331913110965,0.028617879635913727,-0.16815873486976243,0.1736028046867147,0.20448906565317107,0.20860302356286656,-0.034964611374716,-0.12165705377489332,0.07038430583259739,0.1314008043962282,0.1802501997676227,-0.10344712233304271,0.015606409154001794,-0.01189300810174232,-0.23591121009650248,-0.11658896956199863,0.17898505690581612,-0.019272282043833307,-0.14239335531454914,-0.029946931796904833,-0.07690986369064334,0.25588203682905225,-0.04504308279268361,-0.021715475162195453,0.09877986130208835,-0.1442603865917883,-0.2700357739904973,0.06771924734514476,-0.01972868238597592,0.11960563884316897,0.04903164946257809,-0.1616798264742933,0.09032646851296688,-0.0550540918304775,-0.028328990413478288,-0.09324083838483438,0.08572288480034507,-0.0843368991962878,0.03671167715696445,-0.04517594322325909,0.13277463028953781,0.0641375592459962,0.1579694486943556,-0.08743795839385037,0.03007320322132878,-0.15944719873470384,-0.03973016245440598,0.24515443442757204,-0.07286046886801932,-0.00032068396760340614,0.15504137387433128,0.0028483779735966955,-0.08529737878053978,-0.1437161605177365,-0.17064921632614627,0.19469255601821148,-0.06255394096381364,0.0507894693198984,0.007387025531782861,0.1042358564281401,-0.177199640586173,0.18713934385590775,-0.14037122245892225,0.024603169620090883,-0.04931341351150042,-0.1138082924373077,0.08034443100608925
casual conv.,-0.12250952066115726,-0.022313232438016178,-0.007876216942148464,0.12031140082644602,0.15233000929752033,0.05597138429752121,0.07402904132231503,0.33330555991735206,0.018279820247933974,-0.08142064049586842,0.4137403192148724,-0.0059427520661156745,-0.09863916219008394,0.43513347520661183,0.1400178357438019,0.07202054855371928,0.048347912190081825,-0.21403437913223003,-0.013878324380165293,0.05110943285123948,-0.15757935640495635,-0.15436652892561964,0.106167215909091,0.16820777892561872,-0.22220590082644848,0.019078708677685983,0.15821281714875965,-0.15229301859504246,0.10721044214876076,0.08035204958677714,0.11569946694214832,-0.2334378130165251,0.1262811890495878,0.11377447004132216,0.017676006198347124,-0.18402325206611503,0.18841549586776862,0.01342226652892571,0.25708828925619875,-0.13923275103305766,-0.2938556280991737,-0.21421092871900935,0.2334313502066111,0.061750409090908974,0.07158535743801635,-0.02431637086776793,0.009731497933884524,-0.0194838533057854,-0.17749534400826592,0.0841666735537194,-0.06111942561983407,-0.04169345351239667,0.051479255165289305,-0.02972679648760323,0.14359423450413303,-0.1203168615702477,-0.0682289865702482,0.09426682541322431,0.017521198347107334,-0.10645330165289256,0.15966192871900797,0.3355577995867773,0.0038299617768592195,-0.19901307954545402,-0.08985620247933813,0.05348308987603342,-0.037737321280991665,-0.10500269008264686,0.3042937097107447,0.10751409607437835,-0.03645212396694314,-0.11105923966942137,0.007883637396694204,-0.1202636456611559,-0.05189409090909127,0.1086869111570254,0.17650336466942057,-0.11434712809917602,-0.05286164256198315,0.0782957004132228,-0.11911956714876178,0.07546984710743858,0.20420864152892745,-0.006286170454545914,-0.1320523770661164,-0.2679233522727252,0.16075808987603682,0.28243764462809895,0.10172414462809942,-0.011074040289256612,-0.08194730061983616,0.0901835072314054,-0.01462712086776868,0.19796336880165133,-0.02662693285123966,-0.1978142892561986,0.03112501756198319,-0.3343929731404971,-0.1805288181818189,0.08292721177685898,-0.08868264772727241,-0.15549842768595,-0.003195117768594987,-0.11204924483471002,0.21539409607438167,-0.11916561053718991,-0.05129542561983455,0.11141205785123992,-0.13965792252065984,-0.23350585950413127,-0.0943655723140498,-0.14726354958677793,0.1399508068181826,-0.10718355578512424,-0.07148681508264458,0.22513151446281351,0.00629121487603302,-0.01703386363636347,-0.04976032747933801,0.09928321694214887,0.09501896590909191,-0.03688322210743767,-0.06601165392561971,0.14012420144628224,-4.3847107437575575e-05,0.21911142045454673,0.08316041632231513,0.03101351136363702,-0.18132964152892572,0.021944568181818218,0.3285732902892523,-0.15650248450413481,-0.035143841942148854,0.1336353811983461,0.2996597407024763,0.06544206921487544,-0.15362697830578545,-0.3402482283057842,0.035911995867768054,0.10089203822314018,0.02327059607438007,0.14899910847107525,0.0396044173553718,-0.33271596590908603,-0.03203697107437908,-0.18803307231405042,0.2653951404958682,0.021599424586777313,-0.018872570247933842,0.0827446394628094
cat edm,0.04794369569520755,-0.04690164245422502,-0.21397849539832153,0.21548685066797307,0.12154762325580731,0.044243323800095845,0.17840103285503214,0.2548470263235771,0.07032551261751664,0.07637837427016606,0.25830432924293295,-0.10731142840177083,-0.18043952310738554,0.06439552538346903,-0.06371736724393467,0.12965741078674137,0.08265226580900287,-0.08632987728845995,-0.23159141157839727,0.10309144106878967,0.03380787679366638,-0.061213224839187876,0.051273033943584116,0.1612587496288815,-0.23488418426519578,0.2123974020781684,-0.02116356219693346,0.10592096823355293,0.055523616031669214,0.11824662355269716,0.03209617941613764,-0.04369905472539034,0.04339697644730392,-0.013292779119248943,-0.07596564492825005,-0.10995105393368874,0.01472971756556397,0.010720956853043164,0.3618804384957735,-0.19906450192973907,-0.18203741118260838,-0.06339171964373548,0.3665958924295002,0.15071673735775615,0.2163094010885849,-0.29846658792675096,0.051343803760513715,-0.19997687521029403,-0.05471382107867553,0.09880280188024214,-0.19582389985154403,-0.13665479940624023,0.16289816655121134,-0.2171734311726925,0.12078693181593037,-0.04473560999505372,0.01231448619495398,-0.05154094161305972,-0.08054736724393867,-0.1250823392380208,0.03489532756061001,0.29871033409201814,0.01344824967837631,-0.038566552498762216,-0.2503193732805274,0.02113036209797172,0.02872045512122682,-0.09381526412666615,0.04650600425532282,0.10658987629887028,-0.013639280257297713,-0.04794388866897756,-0.054389900841167294,-0.18845537060859732,-0.0655593940623473,0.1380654534388838,0.2308256159326823,0.0027194350321636863,-0.041688986145469745,-0.04637613260762223,-0.1661940352300906,-0.029592282236518837,-0.0080197074715505,0.06379907629886025,-0.14538075289460373,-0.19326029173675713,-0.0018049504205837456,0.26208884938148147,0.16784294804550165,0.054090323701136825,-0.06801691904998547,-0.05793013003463735,0.12678126580901591,0.07342328748144401,-0.12415491746660343,-0.0783276035625838,-0.04439195418109246,-0.08223617585353465,-0.06649310371103613,0.16591153250864943,0.015222751707074106,-0.032239723305295495,0.012569471152891658,-0.07050397476496989,0.24772710509651086,-0.1743550246412533,-0.17982961890152815,0.18786268302821948,-0.10446646630381427,-0.21310232320632544,-0.01367264176150488,0.0015403025235033424,0.05613350420583788,-0.043733701335971535,-0.247694499158792,0.1547124176150531,0.053130064225623636,0.15462216803563866,-0.05579358278080531,0.2821508089064953,-0.10582114062344641,0.014121966650173573,0.07005074725383213,0.29531481078676625,0.14068645136069433,0.20964161286494665,-0.1006069996041457,0.0274898637308293,-0.2939807361702103,-0.1413400597723905,0.3366396271152936,0.003766709054923309,-0.07072834408708187,0.11608594537357848,0.1324768803562655,0.05687591182582721,-0.3796404200890785,-0.08111176665018303,0.1578205281543749,0.2255038617516349,0.2839074043542648,0.10805827619990298,0.2303531762493508,-0.12801346056407376,0.06798885898069776,-0.16931039663531422,0.16417752122712725,0.11079651934686001,-0.130216628401774,0.2685551460663069
dance pop,0.17811769792803037,-0.08081378080698114,-0.11177082079243983,0.29489896982914876,0.11713861941112377,0.15860321264994798,0.25028017993456814,0.1869083907669955,-0.1753511777535448,-0.033844451835696496,0.37819112613595735,-0.07385388476917344,-0.08716634242093822,0.14127571901126948,-0.12299282697200957,0.10727671537622668,0.12417474227553621,-0.2208810970556153,-0.12208552526354047,0.07902172337331875,-0.039554423118865444,-0.05230939040348924,0.16273708687749813,0.2050319302071986,-0.2478685597964337,0.06895678044347485,0.20245830461649827,0.051470784442022556,0.1424151762995298,0.06374762704471172,0.0852246463104344,-0.1712538222464524,0.08236062995274578,0.04232781315885109,0.016233550345329435,-0.13307630243547797,0.19975944820065206,0.06747517920756045,0.3084805997818966,-0.10797770519810972,-0.24666105961468718,-0.05589985677935317,0.39296061832060614,0.05496631661214054,0.0927714318429651,-0.06507263213376989,0.08773413667757238,-0.20810756015994195,-0.01819729116684855,0.08283558669574759,-0.1631832559069446,-0.07565938204289377,0.02646528753180682,-0.20584981679389203,0.10861432388222468,-0.2562602268266085,0.00825519992729897,0.07875510541621142,0.0921112119229342,-0.09658237150127098,0.08393040603416782,0.35821562595420037,-0.09872306070519728,-0.20180122428208172,-0.3250012104689183,0.020005348237004835,-0.008065080334424476,-0.006157291893856884,0.19908652708106053,0.12272363940385203,0.14961876444929206,-0.1187373893129759,0.13527514867320806,0.034371089785532424,-0.1081790672482721,-0.001866302071974268,0.3222545078153377,0.20925081897491873,-0.11961124681933952,-0.021603761541258103,-0.05667638640494467,-0.017829845874227233,0.031200449654670497,-0.15797899963649703,-0.03296995238095251,-0.13852347400945053,0.21704100981461102,0.34901229843693554,0.23009663976735542,0.07839069211195841,-0.03954000727008293,0.14676110832424852,0.0618403315158121,0.2189700189022159,-0.16404228207924346,-0.0973034641948389,0.09207401308615058,-0.14972410796074362,-0.024223954925481697,0.16316307524536747,-0.08499354162122869,-0.17523199709196668,0.09092772700836133,-0.25388598582333644,0.39858793093420697,-0.14493411486732036,-0.18333863540530182,0.21301887677208498,-0.2016858589603804,-0.29771167502726387,-0.10457843366048795,0.0593141741185025,0.1687959262086525,0.03836509342057427,-0.2118594947291942,0.06169602980734287,-0.07333904143947452,-0.11941544311159448,-0.05766585605234387,0.3276015405307152,-0.173135620138128,0.1078805503453272,0.09068911741185107,0.2876827379134831,0.16973367175572182,0.03330803744092999,0.0635188320610686,0.00607428098873174,-0.1861451130498006,-0.03161945256270468,0.15787243329698183,-0.046948748455106534,0.02474013922210066,0.2427311541257716,0.08056734750999563,-0.10242375499818251,-0.42364634460196327,-0.20776827262813663,0.12882039549254792,0.07030442784442116,0.23530909196655944,0.021434273718647538,0.22277455543438685,-0.3357151148673174,0.09928324427480832,-0.02352226426753925,0.09769823555070946,0.05068744383860247,-0.25748936495819547,0.013363087604508234
deathcore,0.039859800897363296,0.1486267436904078,-0.07846120807627545,0.028846486819966686,-0.2519821026360091,0.1495377464946721,0.3794685333707185,0.05424785305664304,0.1629350936623708,-0.08777191362871675,0.401093395400999,-0.07676949803701834,-0.13828509927089175,0.13483856982613368,-0.1535209399887835,0.19569885754346428,0.09460003757711818,-0.08414905888951188,-0.09595208805384178,0.12508217049915776,-0.031818412226584304,0.08798105103757696,0.08313666236679618,0.06331739315759935,-0.10284251822770654,0.1347509971957353,0.040279666853619965,0.07535994671901217,-0.1494904957936091,0.25165105440269486,0.04174726023555782,-0.016074398205271952,0.1368949584969157,-0.08319208973639716,0.13312426472238117,-0.12574135894559532,-0.07092034155917018,0.044068577117220085,0.24272630173863924,-0.06345656590016911,-0.1466863157599593,-0.2306777694896286,0.7190133387549108,0.04514614582164654,0.010005799214806524,0.02203944587773304,0.023776518788558597,-0.3398805507571437,0.02697073303421166,0.41218105328098614,-0.009488952888390486,0.14466969209197675,0.17925653561413335,-0.25127146270330625,0.2492656707795878,-0.46579379080202554,-0.0793331996634902,-0.14936141054402652,-0.07858506337633196,-0.20069426416152517,0.0017805776780709611,0.21966382108804952,-0.1355519495232747,-0.18606308356702447,-0.2593167543466091,-0.21455205384184023,-0.2395671121704976,0.17177672069545286,0.04305871396522733,0.17214931968592134,0.12633098205271903,-0.13904458328659358,0.001075717891194667,-0.06692989343802645,-0.2912081054402771,0.049563270891755565,0.14878120302860554,-0.050996542344364244,0.022546988222097494,0.05317608973640036,-0.41526472742569154,0.1671554520471097,-0.22551802636006943,0.22267613292204358,-0.019484812114414704,-0.08945653617498797,0.0692352574312938,0.13377625630959553,0.259556740325301,-0.07248533538979078,-0.010419767246213497,0.001343071228267017,0.07698253954009873,0.20786756982614008,-0.0911450241166563,0.03827737352776206,-0.22265864778463915,-0.4712024122265918,-0.1854638799775666,0.04703551878855937,0.15757105776780408,-0.273646182277056,-0.2558896898485729,-0.05340595064498063,0.3984323578238839,-0.01159918339876689,-0.05712448401570428,0.19831976107683655,-0.11315997307907888,-0.27105699719573323,0.1118352753785757,0.020292085249578935,0.3379001531127274,0.17043944980369918,-0.23746547448121505,0.1515011121704961,-0.3426203583847388,0.06098962478968006,-0.07632535501963039,0.1345060678631538,-0.1715685075715088,0.173729275939427,-0.1674467335950666,0.28331581267527284,-0.11819850364554164,0.25858854514862584,-0.17387981716208678,0.04994785305664629,-0.07865507683679154,0.009340686483454699,0.40786568367918463,-0.2946369007291139,-0.17438456477846767,0.2448985154234413,0.03278573583847441,-0.12865540044868393,-0.07072066461021066,-0.1696908014582191,0.17971692596747116,-0.28900124845765435,-0.07662684296130197,-0.03521387717330337,0.17526897363993296,-0.12489413123948508,0.18561930622546113,-0.2717447223780086,-0.00016680145821731726,-0.0020383140773978905,-0.08665205103757859,0.15410654346606867
edm,0.13113005348125023,-0.030599122112751974,-0.17981632320556504,0.2539150857686851,0.08549214032617838,0.11957312600380962,0.17494390669760204,0.19270438728371078,0.055280850981041366,-0.020466771173106527,0.1930305290172964,-0.12047722824736917,-0.17648991704611594,-0.008448586720755677,-0.04840700430499125,0.0866224415100635,0.0023753788393082323,-0.07544291133372688,-0.2256380965311781,0.08540860990149092,-0.03481437925324712,0.007315381902474024,0.07367261627619638,0.18332198600878305,-0.16168576065898738,0.12825031161518574,-0.03598774037586433,0.13864417244804136,0.009179489113336162,0.09533416657007333,0.06431030548884688,-0.0749073506085006,0.011363003228744553,-0.07408181703783455,-0.022371348207627883,-0.020035018544578412,0.08514216681844151,0.014351780528190765,0.3189373975494522,-0.1367323569003872,-0.18586415175096221,-0.0866357645500366,0.3767710409802014,0.07351368209289795,0.1865873860419005,-0.3032219418825995,-0.029404793608743974,-0.19954441700469897,-0.0038827316830878115,0.13114699817865683,-0.15508040160609163,-0.0867898008113278,0.1697612284957418,-0.2905044949913319,0.037264714214757015,-0.04605707169468108,-0.07331002616111737,-0.04327654524381309,-0.025310846427686017,-0.15742404901066936,0.07172814785991939,0.30930110886659856,0.004082606921101556,-0.04539719521483269,-0.24685741559730542,-0.0250801169798819,-0.014110257720005973,-0.11572838960179135,0.08854142122692778,0.07956362298204174,0.046631510141569556,-0.13050082631012103,-0.007420432403344676,-0.0639081647487367,-0.049578126997268664,0.11966639713552522,0.24845216284462665,-0.05163370196208424,-0.014826898832681895,-0.02816758879046438,-0.19164409777298946,-0.037184205232219325,-0.035324856279490134,-0.023471288600050867,-0.04292563970527734,-0.23312905016970512,0.0068530764963987455,0.15685775560889695,0.09581751047271969,0.034122213593840364,-0.1266492161602748,-0.011249070535640882,0.09847128860004731,0.058810514529347706,-0.10032692979552425,-0.16070121409056318,-0.10323059168804727,-0.13580244871264885,0.027270986091557623,0.16429013701464334,-0.0696514155973205,-0.07030479153904633,0.05726753315672222,-0.09793350194552083,0.2995475262025063,-0.19788475809257,-0.11430847777133514,0.1301264036757998,-0.04425579451941294,-0.21625268217569507,0.04775388401357817,-0.02996771305572296,0.06436095330739919,0.01205159326103053,-0.3197900144051271,0.12279361511715862,0.07035229638214657,0.1191965974832387,-0.08445039663879772,0.29799782622735976,-0.09886088508982407,0.05458343645997485,0.08782244333140314,0.39606960261614665,0.10521955948338052,0.14158857562713698,-0.04800395281066347,0.05562377655435211,-0.24681428346715636,-0.06397304768606898,0.23251427750642448,-0.05613964657669686,0.04406222924083567,0.07748110870104463,0.07034865576621527,0.04611478532991202,-0.4308929396473734,-0.10290366040236758,0.13489908709329196,0.11717765742198841,0.3024041372630081,0.135439188508975,0.18876483591356188,-0.18102668863317942,0.04307315762893934,-0.11464474939977382,0.1683340412285977,0.054479093136846596,-0.1770868492424963,0.23815422493585475
edm2,0.10373579020566116,-0.047265632816559947,-0.15340583917732561,0.16793436759964095,0.006084811639437405,0.0336556997537512,0.1344035280407894,0.16308714799018145,-0.02445759522075261,0.04285251146256279,0.25374002639341087,-0.06873781819443257,-0.1376041152845557,0.06495637158809695,-0.04154615392085489,0.06516564703637556,0.033406205493711066,-0.057440370443589434,-0.1902552233551887,0.10243952495405126,-0.0020143040960012406,0.015932745534628808,0.09215878444839014,0.1430541492040259,-0.1308225740644552,0.09945102677487892,0.04472503326049744,0.0882220688447193,0.041944845281451176,0.07656173825131546,0.05082960323240756,-0.11258606683313305,0.015144931467417208,0.019668547740432207,0.024271066937193643,-0.06981713789754602,0.05267154801789141,0.05367198356050147,0.28686049387855234,-0.15453047764714867,-0.1582967615579277,-0.11932859220337645,0.32654385360528326,0.06433048617902831,0.12105228904382,-0.2146555039711219,-0.013205903929526417,-0.14880488214890758,-0.0011201176082928045,0.1281754115423328,-0.07894922286962909,-0.06515748364720922,0.1284792746505692,-0.19212116879963634,0.03341355700066037,-0.08912062435402612,-0.06358334956473145,0.0013057974543055591,-0.05347397041584286,-0.18792833919468868,0.05621413293794772,0.2659581258627361,-0.06115567148752725,-0.0738198559636715,-0.20295407089097797,-0.01998037359969764,-0.009028177574308663,-0.08329409208199161,0.0902923538653528,0.10075176807824507,0.012412850657235271,-0.06448733791142273,0.020452004439354673,-0.09862904259008513,-0.03230089068081696,0.09155803825478616,0.15982321145911396,-0.01269378215933233,-0.009659750251444608,-0.013494157423785307,-0.1810633910449735,-0.029403874969652022,0.0020219726008374826,-0.017033567370716176,0.021464259910524697,-0.20086212572399714,0.07057172555751247,0.18770943363505013,0.13926474706065717,-0.011958552387889941,-0.10233852186732599,0.02584579846010549,0.12630850476882846,0.08327829185309422,-0.11297826206082345,-0.08069809763118706,-0.009812955849200165,-0.15205248506919872,-0.01925586865744315,0.16293974071373846,-0.061503315575903106,-0.09660722730899188,0.050365655672327224,-0.09133307154994957,0.21974194520163684,-0.13905412936566064,-0.09281990084278131,0.09920926518224474,-0.07241533617729781,-0.2358765118093509,0.05716888343218294,-0.030990050428323906,0.07444275240175122,0.004080311240592541,-0.24100490507404568,0.08277989813756163,0.043454005202371554,0.05089324624562345,-0.09331715600180936,0.23176927465057917,-0.10281869403115255,0.03184537658238943,0.04282378548884911,0.24111330083587268,0.11834774425139677,0.13315728113619182,-0.07064647733500948,0.030189057260783383,-0.21281326708981696,-0.04010165331390769,0.20411177858706456,-0.023160969097907092,0.047071018416396104,0.10496391301633813,0.021310976277185215,-0.004009283945478855,-0.3074812822460098,-0.1065821722678875,0.11372199424270718,0.06906524236118768,0.1918484584330308,0.0924795427808329,0.17068389831096512,-0.14567373630908984,0.058751080185895546,-0.10023134651268321,0.11082723917041051,-0.040822537647833314,-0.11021961564871789,0.1740473710678996
electronica,0.1880705464272017,-0.03608881887657571,-0.23499900573174978,0.26545802713030675,-0.02685980359189903,0.04386540122277361,0.14885062896445828,0.09314114749713294,-0.15868388077951512,0.010537168895681421,0.260686987390142,-0.17176709896828185,-0.16087772181887733,0.017845457011846803,-0.06476021398547951,0.05379659419182437,0.0950223041650745,-0.03038540733664474,-0.28571511196025834,0.19143625678257606,0.008935623232708731,-0.024977229652273388,0.19799237523882332,0.22634483568972075,-0.09570127435995589,0.08240566679403859,0.041108564004584465,0.09043784486052837,0.03698652464654097,0.013596552541076817,-0.06992092166602948,-0.22488303171570698,0.023071433702712422,-0.005074981276270232,0.10538019870080106,-0.18028670118456028,0.09347650095529242,0.08884513144822544,0.3141059587313673,-0.2527962105464263,-0.1795743091325946,-0.07329211501719547,0.31938543446694323,0.0009530370653420644,0.12817923309132476,-0.2051929679021838,-0.09326160680168194,-0.308709891860909,-0.051963756209399595,0.231108502483758,-0.11644673060756673,-0.08375829881543728,0.17597353076041453,-0.27891541650744767,-0.110516209782195,-0.07520663889950255,-0.12651993542223686,0.056582044325563546,-0.1161063672143667,-0.28859378486817244,0.10811830263660543,0.4140248891860851,-0.15012731486434897,-0.03428918188765734,-0.33884709820405917,-0.055207581581963594,-0.03019127550630572,-0.14444217577379143,0.11513111196026084,0.15039887275506453,0.11946658196408236,-0.10713821857088175,0.08675698547955886,-0.12010948834543218,-0.06683347497134078,0.06939740313335999,0.26580855903706674,0.03305148299579654,-0.00512352846771084,-0.1069125288498288,-0.19093466068016926,-0.11379777111195945,-0.015370282384409755,0.01266551356515128,0.04811234658005445,-0.22025737218188388,0.12943179556744144,0.29109090905617363,0.14251179212838896,0.05063937600305719,-0.14887486014520188,0.1359714249140235,0.11476299732518225,0.08905688689338903,-0.14163411922047958,-0.0812753247993893,0.07580922200993431,-0.20278683798242242,0.037758938479174976,0.22429716545663436,-0.21644894421092875,-0.1293477684371398,0.22260440160488978,-0.13116202827665233,0.16241320787160662,-0.14986730301872472,-0.20019812036683135,0.11111702063431154,-0.033884260221627195,-0.30069571608712203,0.08773706457776229,0.09853755521589692,0.044916646159725494,0.10432132785632302,-0.3232627260221668,0.041066484524263404,0.17709402636606583,0.11806034084829825,-0.11305901337408973,0.3996777225830978,-0.11594283110431781,0.02718789759266335,0.12385823347344274,0.2962006973633897,0.08473301069927458,0.1524836797860127,-0.07658566373710281,0.0743206602980503,-0.29001749866258447,0.03055732900267476,0.26405943370271645,0.00726909858616761,0.13710153381734735,0.07070789071455721,-0.056556887275505854,-0.11320062399694099,-0.44983230683988856,-0.10609843332059628,0.1383555731753925,0.06642467176155879,0.2827817172334692,0.11187285021016254,0.18749759266335436,-0.11317619296904953,-0.025324357279327376,-0.12893738975926541,0.10103952350018817,-0.1075391406190306,-0.11091123729461595,0.07674205655330672
hardstyle,0.09272379297732392,0.007055561814191486,-0.42145387637162046,0.30754289465983603,-0.18203732845647333,0.20842836356985917,0.33235615362107634,0.20049484784198984,0.374040998536939,-0.13378590563277132,0.31477544696415005,-0.2444817893196819,-0.11800068105340268,-0.16342664228236836,-0.03473538844184309,-0.08813690051207101,-0.15789614411119515,-0.027704613752744498,-0.5948170548646702,0.19343889465983594,0.026232190197512852,-0.10554038258961201,-0.03981145940014693,0.14647932260424032,-0.2503760117044551,0.07086412874908753,-0.0731531002194563,-0.0433074557425025,-0.1377157168983193,0.23788082955377132,-0.08099669861009506,0.09481909144111118,-0.06926384491587323,-0.1321613518653947,-0.16753904462326563,-0.026593792245793363,0.06997518141916576,0.005398107534747521,0.10668733430870395,-0.1569258705193883,-0.16348628383321073,-0.21656588880760433,0.46776647183614545,0.04072884272128665,0.2963800658375965,-0.6846545142648207,-0.12060805852231109,-0.3312141492318985,-0.2278843525969278,0.2712336744696369,-0.5773288668617526,-0.1489848617410368,0.35082251645940504,-0.25441165691294315,0.0005319319678127655,-0.2576653328456495,-0.05269791294805984,0.1560586891002199,-0.3843529158741702,-0.21550710095098524,0.045979150694953425,0.147548723482079,-0.14035463204096751,-0.027735502560351767,-0.058102486466717146,-0.45778233357717624,-0.17708958376006328,-0.011999089246526068,-0.01343701243599123,0.1042734381858071,0.10924794294074751,-0.25641804389173656,0.045041416239942,-0.328815752743229,0.05461660424286807,0.23627499414776226,0.07762029188002516,-0.18463320043891332,0.1839037015362122,0.16518667739575799,-0.35003933723483094,-0.34724413752742295,0.058471910753474354,-0.1508194798829581,-0.08052551572787339,-0.3231058032187324,-0.10474417044623142,0.14118746744696575,0.10097005559619751,0.17269320482809392,-0.30941782809071244,-0.3161647783467494,0.023530378200439957,-0.278166351865401,-0.18476688734454952,-0.1043765822970029,-0.23088792172641107,-0.1232287885881511,-0.06798867739575616,0.1125557827359169,-0.0808374608632054,-0.11009966276518003,-0.19462424433065068,0.09984013972201927,0.3291728471104562,-0.22035921287490723,-0.18868820190197555,0.2173070885149965,-0.07106137966349528,-0.2249085647403068,0.1022827000731524,0.04083661082662744,0.26124637746891455,0.1310286656912949,-0.3892832809070848,0.22256956474030407,0.23037971470373422,0.4370469524506244,-0.044076317483541086,0.26110294440380577,-0.19367076225311247,0.21166553108997496,-0.008018678858814647,0.3775705040234001,-0.003672486466715231,0.2639022823701587,-0.03829249963423727,-0.02881809948792954,-0.4959382055596252,0.018327393562545962,0.4394274498902642,-0.11874761375274505,-0.10913752889539337,0.12859391806876674,-0.05526845940014673,0.08748436210680376,-0.660725356986109,-0.2215299429407457,0.2393614067300609,-0.12453903438185854,0.31645064008778734,0.1291853211411869,0.287816569129479,0.13675568836868923,0.16117859692757522,-0.30757750329187816,0.27920694879297087,0.21839035332846252,-0.11777115142647925,0.2180138990490124
in'tl pop,0.020795079410560864,-0.1176694576340565,-0.15527207941055937,0.21763440360212968,-0.03602655096193122,-0.019766278346295574,0.15059759107654663,0.25300919361440877,-0.06289773516168637,0.07709048751535014,0.39116846254605053,0.009591473188702338,-0.05245955014326639,0.10524690094146597,0.0019003569381909331,0.11119230986492036,0.07474358125255758,-0.1714735517805987,-0.20072951289398508,0.12358900368399574,-0.006954554236594282,-0.027040181334424915,0.13620908841588258,0.15416210028653238,-0.19046835939418766,0.08157772165370532,0.05666961686451187,-0.05200141711011065,0.06920745354072907,0.03714368604175218,-0.0002600306999594176,-0.13071663487515384,-0.0539096647564469,0.1146923352435528,0.10897315268112928,-0.1564069901760124,0.058681119115842326,-0.011250318460908524,0.2327866794924264,-0.08589789398280773,-0.15395757388457054,-0.08073706180925194,0.2749330061399886,0.0060469574293900655,0.06827297625869871,-0.06809967048710491,0.03798793000409329,-0.037419719607040325,-0.034955482194024015,0.026338304543593857,-0.15395078591895275,-0.09617135284486265,0.09258502292263686,-0.002036900941465071,0.05647227425296778,-0.10376169095374671,-0.040196130167826166,0.004708022922636198,-0.10501808882521518,-0.1929334519033979,-0.00019787965615996895,0.1659321571837895,-0.1524714269340969,-0.16389018501841965,-0.21406417683176285,-0.007396262791649783,-0.04406104993860031,-0.04718843962341418,0.20101522431436508,0.13798879942693376,-0.038467007367990205,-0.09077202783462894,0.07217393900941542,-0.15110098198935756,-0.08504418133442464,0.14764881539091287,0.12593812607449856,0.021597002046664135,-0.017636628325828622,0.0881116299631604,-0.19939652844862873,0.017774503888661582,0.06262080311092863,-0.10526714981579906,-0.016118282439623485,-0.12254720221039526,0.1657030822758896,0.15553449652066914,0.19148695742939056,0.05687053499795339,-0.19677718010642467,0.07586529431027461,0.1092432161277111,0.06707269218174317,-0.1540801313958245,-0.12088662259517051,0.08217906672124412,-0.1608082521489974,-0.05341227875562804,0.15048257020057326,-0.07696148055669247,-0.1250462746623003,-0.01243568481375364,-0.1349234600900529,0.22157718542775032,-0.06163328325828913,-0.11755147155137184,0.03128025583299221,-0.1719582713876376,-0.3151501940237424,0.04681594883340169,-0.03561756078591856,0.06811188211215768,-0.002270501841997686,-0.19623291035611978,0.0268474764633645,-0.08156940114613077,0.08847096643471201,-0.13297579819893782,0.11125621203438374,-0.1084394203847732,0.11878241874744179,0.08126964674580493,0.14942105894392185,0.11725891567744579,0.009200027425296468,-0.0028987220630372354,-0.013194779369627386,-0.24298571182971757,-0.04751012361850146,0.1881089852640192,-0.04167041506344676,-0.03803167949242702,0.13928313589848493,0.03279391322144925,-0.05250334588620532,-0.24305736921817306,-0.2044967503069996,0.14927406344658126,0.07044843184609138,0.07737400122799906,-0.006963289807614029,0.08263639050347923,-0.17107291199345095,0.15866663364715508,-0.09812397134670392,-0.0020719889480150587,0.10384851575931245,-0.11251567662709774,0.03512652394596894
ind. hip hop,0.1422767368421052,0.01866228947368427,-0.20482414473684202,0.4437052105263155,0.07542682894736841,0.06060356578947373,0.3434748815789474,0.38302582894736803,-0.05567459210526321,0.16201648684210518,0.5718196447368421,0.027168302631578937,0.1701261184210527,-0.05835505263157896,-0.4038760263157898,0.2522902105263156,0.41872942105263167,0.24495225000000007,-0.29017415789473694,0.28429852631578933,0.03819300000000006,-0.4768585000000001,0.4868643684210527,0.28425872368421057,-0.507842210526316,0.03180810526315785,0.357307105263158,0.1427278289473683,0.12585743421052642,0.34426293421052645,0.27407307894736843,-0.29923807894736837,0.4114399078947365,0.24593826315789472,-0.21860464473684219,0.028974368421052697,-0.12824784210526308,-0.2449608684210526,0.21076380263157865,-0.42060140789473666,-0.06719690789473692,0.08391142105263152,0.195789710526316,-0.008849131578947355,-0.08654549999999998,-0.20598651315789485,0.44585471052631587,-0.43016309210526277,-0.04243031578947368,0.02107448684210528,-0.24466331578947376,0.056439750000000025,0.22537885526315787,-0.6674288421052631,0.6806806315789476,-0.5863797763157892,-0.05390757894736825,-0.015343894736842108,0.23757293421052642,-0.5854657105263156,0.05541342105263138,0.21508344736842128,0.08177961842105265,0.045113250000000035,-0.142126118421053,-0.03201663157894735,-0.1271022631578947,-0.07295202631578955,0.1294285263157894,0.6184640131578952,0.008499013157894716,-0.1156369342105263,0.10355082894736821,0.1655956578947367,-0.1333873289473684,-0.0020349999999999934,0.6982179078947361,-0.34767544736842115,0.019030631578947296,0.08959902631578949,0.0037014736842106884,-0.024258039473684215,0.19241836842105242,-0.0213146710526316,0.20321451315789482,-0.1938890263157894,0.09861744736842112,-0.12525996052631583,-0.06437486842105267,0.051828657894736806,-0.16377381578947375,-0.06118864473684209,0.2595069605263156,0.3368469078947367,-0.20744414473684203,-0.10352765789473695,0.13716188157894743,-0.3452464736842103,0.00011849999999996476,0.1309890131578947,-0.11602368421052618,-0.15372405263157873,-0.0726987236842104,-0.3769858157894733,0.2506172499999996,0.09216315789473689,-0.21745311842105255,0.4403965131578952,-0.3337500526315788,-0.2945686578947367,0.12656560526315788,0.10435681578947366,0.5285059999999999,-0.1929965263157894,-0.7808442105263161,0.01969452631578952,-0.16317848684210515,-0.08883081578947369,-0.02250702631578952,0.45387215789473667,-0.21028927631578967,0.1598447368421052,0.11194386842105263,0.6219472894736838,0.5037314736842105,0.16811228947368423,0.20516057894736858,0.24622255263157902,-0.0191029605263158,0.15643514473684214,0.2787756447368421,-0.36120298684210544,-0.3753457105263157,0.18619118421052663,0.14838878947368417,-0.1964044210526316,-0.0866435131578949,-0.491374355263158,-0.11227319736842113,-0.2806484605263159,0.3324662631578945,-0.057448013157894766,0.4503503157894732,-0.26237085526315784,0.05981050000000002,-0.17261396052631572,0.13883332894736836,-0.04297713157894739,-0.9271746447368421,0.4194864473684209
indie,0.08847169732476452,-0.0273299463894988,-0.09355499124726288,0.12780611509141196,-0.06368671274793795,0.028890815486696666,0.16513614745536076,0.0762134802710584,-0.13069636655608735,0.04097608043340366,0.2987076525728952,-0.03188761879720366,-0.11382808569209521,0.17597155770453277,-0.05181894236605603,0.09499885363874958,0.1232899909648967,-0.057383688042636286,-0.07022557813933851,0.03607035265052375,0.004652206536316657,-0.03620303712853772,0.1622620762687924,0.1583228620738363,-0.11313278591092744,0.07207482205123812,0.1389292526999318,0.06292722326534457,0.11139738293217366,0.07637404598714269,0.07023143255453318,-0.215328296357741,0.017719062504407527,0.1034264385896919,0.051777298934149965,-0.09847596491847392,0.11516343269570753,0.0734430094232995,0.28492583295687035,-0.11140224790005775,-0.12557059278604604,-0.1045564101785941,0.32415724606483093,0.010713251923483205,0.08679168077220828,-0.03511562804403757,-0.036662003176393794,-0.1474927911696212,0.026081584350953015,0.1144964790710724,0.030581427331140047,-0.03069348902378862,0.07915870703042897,-0.12302419072492667,0.020260176325262204,-0.1504650986094431,-0.07578687912047907,0.09323954937529497,-0.0639911142796645,-0.22311188579093094,0.07571912370297468,0.35983150592928864,-0.09423651034094485,-0.17333461456201443,-0.2590747502647037,0.014637951401141637,-0.04586015892568054,-0.04202957132772847,0.1936653269570076,0.09867606984541993,0.06947557799816188,-0.04822365380814793,0.09959769856003638,0.03599037562645365,-0.024727100091763567,0.012549990682581506,0.15223758039810759,0.08840858308040185,-0.08188070639513155,0.0026588449918827015,-0.1218505358226806,-0.03196619683066137,0.03343473297099015,-0.07501967071362727,0.06426215956096448,-0.15973264876119495,0.16870662924399835,0.31601888812028245,0.19348780059293363,-0.013785024211196291,-0.10449639877886073,0.1161328167219716,0.18156386832075355,0.18667998598856386,-0.13856934036846077,-0.024464723935906287,0.09531924246487963,-0.23459738113222287,-0.051146416637253556,0.1781614193548258,-0.07436186292086772,-0.11786008632737187,0.07241383165101845,-0.14553106476318042,0.2427702996752983,-0.10138691995482699,-0.09099531545139934,0.13410984276839436,-0.11990480225170655,-0.3355679470953902,0.03640775509987896,0.03700923434742802,0.10946177673466305,0.03357935201524813,-0.15967121814781304,0.045762179431070575,-0.0035829673537103755,-0.05030457263358807,-0.08399948443566468,0.24315696068326503,-0.07239568666620065,-0.010448753335216008,0.0031611932307490692,0.18392053670504252,0.13030965038471265,0.0791495245288309,-0.05434088564975462,0.053869931636905205,-0.1953155222347702,-0.008545373579447952,0.20850712723230053,-0.02558118691324845,0.06656700321168696,0.18738504192844452,0.026442987612058034,-0.09176560302110592,-0.2461621846191655,-0.16673874027670477,0.143379014576132,0.02244020434813416,0.1065121624549944,0.010145871814786378,0.15346276448789642,-0.22189806373969387,0.1275316010093855,-0.111891233147449,0.07425653899909365,-0.11105087961459834,-0.12185622178299507,0.05000775326462779
indie2,0.0910496257216232,-0.061003120269398116,-0.06077576497755432,0.17668113976907662,-0.03563563707504704,0.08457416536240943,0.1892484191148355,0.09731598871069831,-0.14565196722258283,0.06299251789609205,0.2991579759461043,-0.03298384361770221,-0.10569883085310634,0.21444007658755151,-0.03206766375882239,0.10171443572803936,0.1595021713919161,-0.0896900679281647,-0.029930002501612964,0.0573467069275158,0.011573867735727906,-0.060497286401539986,0.1647119962155112,0.1560478478512109,-0.12801261558692648,0.04888776401539328,0.16556390667094145,0.08467800038486126,0.1333932506093631,0.08670994201411797,0.09372956882617312,-0.20837038280948422,0.045829361898655045,0.10631311128929444,0.04890142360488189,-0.09829314579859091,0.16955875208467966,0.07939806966003302,0.3008321111610528,-0.03928035355996936,-0.14243189050673563,-0.05146401077613398,0.33006990320719964,0.028158017703656717,0.11665351847336694,-0.01980437280308184,-0.006394112508018248,-0.15673589031431556,0.021047917254651945,0.06664359640795425,-0.015268609685699326,-0.047000412892879075,0.06467968909557528,-0.12651782642720796,0.03897751488133388,-0.1496507155227673,-0.029222979474021263,0.06509023271326558,0.002327556125721822,-0.18499970840281757,0.08666680987812096,0.3926940771006839,-0.0708369368826213,-0.22765776407954683,-0.29422797293137176,0.04947334143681581,-0.038908576010276225,-0.06392580744066625,0.20556669878126443,0.09951596138550613,0.0750587470173147,-0.06974671161001093,0.14734275760103657,0.1216421578575973,-0.040241859653623854,-0.01668588184733755,0.18825023438100288,0.08741474092367037,-0.09441566792815048,-0.019794333033998357,-0.04583159627966129,-0.02833720506734887,0.07062666837716684,-0.11701752238614359,0.03830720436177111,-0.12822126010264848,0.22489615657474027,0.3304055131494418,0.2019271585631696,0.010504689929442914,-0.06913155375240115,0.15152267870430017,0.15579748306605182,0.208052479858898,-0.15623435567673763,-0.04534367876844253,0.13265141757537496,-0.18640973021168622,-0.052003562347666885,0.18836236638869677,-0.03151581141757516,-0.11592582764591984,0.09598846966002521,-0.19439401686980465,0.2729467040410313,-0.12631109243103772,-0.11359158717126008,0.15703207357278162,-0.15337899089158635,-0.3492523817831735,-0.032858271391917805,0.03745546767158376,0.1316106429762696,0.010448679538160623,-0.1446045862091292,0.041306045157153554,-0.026425185760101902,-0.074204127068636,-0.08886874772292148,0.23975839268760543,-0.09630481924309912,-0.0028515286080860605,0.031867467992302806,0.2262709913406007,0.12101364958305756,0.045341033418858236,-0.056847656574729614,0.05771492540090692,-0.17934157915330393,-0.03039081680563975,0.1609459721616574,-0.02428331404746679,0.03426264804360894,0.2281902705580526,0.036705630019244685,-0.11654195991020355,-0.2418423541372304,-0.14940923438100598,0.13552628608082726,0.030376476010259702,0.11581399185375899,0.01746665420140859,0.16976776292495324,-0.25697500256576605,0.13581090718408095,-0.09465210211674085,0.07587961462476203,-0.07234537479153043,-0.17176911526617197,0.042398911032708465
indie3,0.09690461411728853,-0.047255425282145484,-0.057340061215236444,0.12310156086255122,-0.06952063633616175,0.04874950660016482,0.14070715044338236,0.10010583439137244,-0.11455987862757136,0.04605036588069642,0.27702564686618986,-0.013142204302699722,-0.10249336048972564,0.17061073120717066,-0.03320336331115979,0.09593657295446056,0.13193162056628285,-0.07611364545546134,-0.06950075891776816,0.021950744558646457,0.014066461809753409,0.0028208777710620266,0.1321811364872962,0.13584749057841353,-0.07833573936921218,0.04676648700120345,0.1396376022772969,0.08121740528013777,0.0933676148226516,0.08007428501610793,0.08837965291213659,-0.17954084431680453,0.012040780985485021,0.11689949607014734,0.05320954292624566,-0.06869838935913124,0.13070759461911413,0.06921573473396841,0.25903266515518697,-0.06079809310761377,-0.11353663532849359,-0.10144915185410568,0.28744029751109573,0.01577027100967362,0.0895400589983789,-0.07234008272873117,-0.030481712162435788,-0.10699304715841224,0.05231229539499785,0.07765194135428091,0.03274934618099482,-0.01847878965135115,0.07100410298267718,-0.12643743913744643,0.011064397370011197,-0.10736324259370823,-0.05405765059450887,0.0703229565699132,-0.023219838522774292,-0.1939259841293836,0.07633760378879809,0.32689953007861206,-0.056198330562274905,-0.18020488643693836,-0.231006593611447,0.017686586154775853,-0.05205690996575063,-0.06699275730551967,0.1745737040003993,0.07329871029826418,0.02756480728536872,-0.024622684703748694,0.09511780768843911,0.06566259995969288,-0.013724704504233874,-0.014192474909296404,0.10905585600564943,0.03289428909713804,-0.06984188351469967,0.0010512222390160792,-0.104831606106404,-0.013093423770656686,0.04841045898831337,-0.08361339641273512,0.057858834391381564,-0.15007254741030948,0.1646318791817616,0.2723527915659111,0.17810666283758525,-0.02528776803708498,-0.0853233838170167,0.11796059728941043,0.1710579827690505,0.1672955100765799,-0.12833585958282603,-0.02995912459693409,0.07694371165860898,-0.18650410797058456,-0.056791541465130595,0.17195451153768185,-0.02218948075372761,-0.10390327171503046,0.08073295480653013,-0.13277077237001753,0.2428701682789001,-0.10090936925634562,-0.07216103551994818,0.12478016651550217,-0.10624064948609203,-0.2996052273277024,0.012527198559049754,0.002076335046351782,0.09139308741434346,0.01895377453647404,-0.16863840316404932,0.04435630844417641,-0.022073229191860135,-0.03709084698710328,-0.11816657985691464,0.21734654448808866,-0.09474185781943803,-0.030402998589281128,-0.0016382044034655813,0.1979669478536939,0.1346562656187093,0.06616512852680308,-0.06858053955059107,0.05493792815397623,-0.16079269362150975,-0.03073026763402265,0.16615475387946857,-0.018668719871020263,0.06368034139459175,0.17670830844418017,0.027330313935911715,-0.06425826466142913,-0.22655339807536798,-0.13544743374647067,0.12413647490931827,0.02138693419992126,0.09341141182990832,0.036195479393398164,0.13178166072148642,-0.2243188324768433,0.09567463336355783,-0.09369267860741178,0.08803830617695942,-0.09231241963925882,-0.12618382910115702,0.09935046372430265
indietronica,0.15682281220537056,-0.015263147025096742,-0.17837091948019557,0.1799983875652935,-0.014334117467192287,0.03210317760224179,0.19804665970187982,0.07535699222831221,-0.15478056504014034,0.03442805121671488,0.2735055268187006,-0.1020954090966945,-0.14455354847751378,0.12605992215569628,-0.06525287374187509,0.06662066403363884,0.113367124601856,-0.050475722639828476,-0.16118095005732636,0.11976078239265771,-0.0323143697286284,-0.02480073397885126,0.18371674149573342,0.18127937648108317,-0.11622882647470292,0.09421301860109696,0.13498142400306692,0.07974484775130349,0.09938738654605449,0.052892448846986816,0.025298157854503,-0.2123308653331665,0.03947701541597761,0.05685313581348131,0.05075725315326828,-0.15810381666454448,0.07856776239011033,0.09721015097464959,0.3182518743789018,-0.22796473321441332,-0.17175122843674154,-0.09823841865205556,0.3332868216333339,0.02051317276086198,0.10422026232640987,-0.08841469601223374,-0.059065499681486736,-0.24571200152886236,-0.038434281182315164,0.18060649726079478,-0.03622074149573234,-0.04048509733724278,0.13056632946872235,-0.224975691680464,-0.021504432284367304,-0.14564538654605555,-0.09717560517263264,0.09397200624283189,-0.08343796521849997,-0.2478350056058049,0.10064971575996617,0.41488155153522416,-0.14020200675245692,-0.08529754936935594,-0.3249998573066743,-0.001796048159000459,-0.029336038731046905,-0.06963029506943734,0.12706249050835125,0.12798853395336748,0.0972547310485408,-0.06464022130207774,0.0952533796662017,-0.07802635125493709,-0.028324601987514377,0.04894610358007288,0.22844157255700556,0.11281254656644224,-0.07464045598165304,-0.0497457188176838,-0.1758224982800291,-0.056551596763917855,-0.007619505924321984,-0.0435926990699435,0.07878687119377836,-0.1981527439164197,0.15122412918842762,0.34437778659702495,0.19641112880622663,0.009552272391386512,-0.12147552834756002,0.10470451828258442,0.13151149038094265,0.1563098985858038,-0.12493841559433769,-0.05438872493311274,0.10433413020766909,-0.1976688778188326,-0.041586478787106515,0.17053236055548618,-0.13976138960377502,-0.12242588622754565,0.16835358351383053,-0.14261922614346415,0.21445903541852787,-0.1264549024079569,-0.15082641941648806,0.1375817283730515,-0.09757716562619709,-0.34086514868134765,0.06750981832080569,0.09119432908650905,0.09821145356095608,0.06535684354694889,-0.21870330475219177,0.04706528627850599,0.07867551114791747,-0.0008344652822015338,-0.07825146464517534,0.3348936742260208,-0.09292214511402477,0.01985738221429464,0.0666667156325631,0.20794400789909753,0.1402154545801934,0.12675123506178987,-0.033985084978976725,0.018245828640589934,-0.25396442769779876,0.032810976939737585,0.23481529991081834,0.012674367053127595,0.08619286609759223,0.1369620550388734,-0.015731705567588596,-0.09443043394063393,-0.35314374175052426,-0.16559627493947943,0.14492198687730853,0.0475965988023948,0.20612930449738248,0.04915564224741835,0.19185397770415838,-0.14714189947764342,0.05875242476748737,-0.11398928793476537,0.07511746757548488,-0.1089200100649773,-0.100537988660977,0.04846969244489671
japanese,0.025745645776567374,0.08840329100817383,-0.06903122779291572,0.017523488283378935,0.09190286757493148,0.03386821961852902,0.21702408283379018,0.26113665667574865,0.06194948555858319,0.06016332370572181,0.37104632479564376,0.07717714659400605,-0.054283329155313385,0.09685247847411478,-0.0518626926430515,0.09309845722070846,0.03434030245231681,-0.15796139891008495,-0.12477594713896503,0.002868357493188167,0.02159414059945505,-0.04092476130790185,0.22009300000000062,0.025400271934605066,-0.2341531095367875,0.12077821634877384,-0.00793223814713899,-0.06079942288828285,0.011985567847411959,0.32275728501362694,0.04003031607629535,-0.18219641580381388,0.04081222070844682,0.13968471117166276,0.07940507847411522,-0.2881606250681245,0.13473398692097877,0.19635242779291154,0.36848731771117377,-0.2914423596730255,-0.2364047079019023,-0.07825396076294157,0.4565810953678369,0.01605854277929163,0.10433253405994831,-0.012177248501361981,-0.06585051117166286,-0.0346949498637601,0.05286152861035435,0.08577583324250658,-0.04696543487738399,-0.173292227792917,0.04196962016348788,-0.04180787683923645,0.10842402016348772,-0.1603289073569504,-0.02675299073569479,0.1028186806539505,-0.022299522615803844,-0.19911007084468763,-0.011684569482288763,0.1279221476839217,-0.19054917111716638,0.04402497711171663,-0.2668120648501331,-0.0962373880108981,-0.011890667574932002,0.016097353678474313,0.19870505177111797,0.17721244850136222,0.07839244359672949,-0.021436000544959578,0.012135461580381514,-0.2522435694822847,-0.01991643923705702,0.07864254713896435,0.14420989373296972,-0.004550637602180274,-0.12019104250681267,0.12491424686648628,-0.1504270174386927,-0.07144031607629302,0.048462129700272576,-0.1051828692098101,-0.005959530245231284,-0.2392143019073568,-0.002583036512261055,0.14715822670299483,0.2984341144414172,-0.02060579509536847,-0.13740286321525796,0.04995955803814744,0.10013230081744016,0.251245023433241,-0.10433814659400655,-0.13493367520436228,0.12760323487738387,-0.34004706648501326,-0.07666509536784744,0.1813510648501401,-0.17799827629427556,-0.09401087411444238,-0.06673106594005473,-0.21414248773842243,0.3128924158038186,-0.038744485558582356,-0.0424660828337873,0.16631807792915454,0.08036368283378693,-0.21458773242506868,-0.008411293188010621,-0.08807962234332492,0.087264102452317,0.05327372316076318,-0.11883760871934847,0.10005460326975497,-0.016499198910081284,-0.022700439782016354,0.0010023286103536993,0.10488435258855446,-0.07298728882833563,-0.011584067574931939,-0.024359691008174145,0.16880999237057173,0.12436180108991865,0.0061795607629429395,0.009341570027247675,0.014705037602180036,-0.1848124615803849,-0.08852492970027259,0.43711695531334527,-0.18690929264305048,-0.02054369264305188,0.30315459945503775,-0.021648908446866136,-0.04743788882833825,-0.3275456626702982,-0.1840794359673038,0.0775262659400546,0.03684894931880077,0.22782276457765221,-0.07500491553133495,0.05491927738419565,-0.22055267520436075,0.05722955476839195,-0.11136572806539398,-0.046561219073570394,-0.09823762343324337,-0.17444031716621294,-0.030875681743869062
jazz fusion,0.06636997514358405,-0.01922225440165663,-0.1041500300348345,0.09106416081347848,-0.04441566001318634,-0.022322457395725356,0.12534426927784972,0.175271359476501,-0.16975488268524333,0.020467704076829314,0.22877583956312372,0.02903726833631415,-0.1129275868562326,0.11479618887110378,0.00466164673759539,0.13121545833725606,0.027531218717628526,-0.07341388833443817,-0.10659665492891515,-0.0035211388758115995,0.002874077205536217,0.023454595989080042,0.17566567545428255,0.16196278024667238,-0.09814443263346219,0.044086629319275955,0.10684434620092945,0.0583669481216445,0.14081554966575746,0.060351798418223475,0.08670325298935955,-0.24358098747765353,-0.016051399774032582,0.1306152916862799,0.05847701967799537,-0.05968747660295781,0.03955144412014076,0.05724529592316969,0.2875298326899687,-0.11165757452217209,-0.14240853789661617,-0.12240228518971841,0.31867972253086074,0.03909767018171707,0.07273253686093784,-0.04089456708408284,-0.09688905357310378,-0.08145454957160818,0.07712819442613447,0.08988678599002059,0.06255911430185748,-0.06060921551642741,0.06834658309010243,-0.12885737661238036,0.045762296205631554,-0.15388444346106323,-0.08711212268147867,0.057945184069297,-0.0956185952358527,-0.22468610290932897,0.015416163826379408,0.2878206127483244,-0.08242430948121855,-0.15599874635156263,-0.187051821862349,0.0488367259203461,-0.10209373514734962,-0.04593384775444667,0.18274801770079255,0.07101512465869768,0.042981215422277064,-0.05431433989266176,0.09445760775821829,-0.04296871716410862,-0.023453282082667296,0.06365124282082639,0.16790284304679035,0.07697464673759398,-0.06723245221730377,0.038144301760661345,-0.11861945146407543,-0.045211665662367825,0.0900284356463622,-0.07300522841540584,0.0587067665003289,-0.1710584473213505,0.17762238631013627,0.23991747057715476,0.18542155286696904,0.011406349872893311,-0.08603922078900744,0.13180958186611272,0.18763398615949095,0.13684129742962206,-0.09657343140947042,0.022171468505789726,0.1011536172676764,-0.2155267214951499,-0.06154631183504105,0.19696053968553334,-0.08015993644666364,-0.09378166029563903,0.01378006750776969,-0.09422130637416619,0.23845743009132964,-0.08324873495903985,-0.08001132821768131,0.10237768204500072,-0.14205417173524812,-0.25832992100555807,0.12286986215987505,0.00536430307880617,0.11758091893418257,0.02369384766029716,-0.20560729469917743,0.05546575746163315,-0.009780911590245574,-0.09192029338103888,-0.0964376534224608,0.20313116966387146,-0.08528679738255027,-0.04355324263252155,-0.008069988042556892,0.16841112625929328,0.10661368938894357,0.1407202545899624,-0.03261672074192642,0.029283467187647804,-0.1638701338856984,-0.045246822050652884,0.23770279935976088,-0.01774555738630976,0.051264423029848794,0.12142144976931539,0.0062247214951516245,-0.0274492978062326,-0.20176976678280206,-0.12177732238018558,0.14002840918934328,0.039994637133982325,0.05458581649562165,0.0227549887016276,0.10345182657000042,-0.22403343884755259,0.19620825270689027,-0.15273996196214373,0.06622739431315632,-0.09966294444967261,-0.10215816599190056,0.05870638310893749
k-pop,0.08188989558743899,-0.007512901220495135,-0.19400555022800564,0.0637723614538619,0.08980811997049963,-0.03773546962178272,0.23482509717007888,0.3359751334495853,0.04177420004023581,-0.003258419662018469,0.42080990202524055,0.10781192723981281,0.00028597780311143595,0.05537093421405045,0.007793315853004203,0.126309909468892,0.017498635662557886,-0.17125834455472647,-0.24634463264482748,-0.036704191925964,-0.051583897196885366,0.14508942817864642,0.16190633442862432,0.08725593065987776,-0.3338568683610338,0.15264025033529474,0.03209742998927095,-0.00194509341469896,-0.04882502440987037,0.2060714311963424,0.2409674578192178,-0.047278448028428365,0.03305960897263944,-0.040979552306864515,-0.07638103587714937,-0.17296744045064869,0.11625962962712877,0.13160232624732102,0.2342146357295824,-0.18728747941254598,-0.37452814015555375,0.05194030961641623,0.4264642279372901,0.0021362604613752905,0.16078636983636613,-0.2250645301099767,0.06922265510998274,0.050361974651282795,-0.023119280780578587,-0.07267839337445638,-0.2525085683342185,-0.06865163432134991,-0.05488264867220862,-0.025590915705482463,0.18898759032993995,-0.1714443000938934,-0.000578638881437809,0.060950067060077745,0.036370956343897226,-0.08412506987659411,-0.0038970757108364625,0.10406113821083643,-0.2547851944742217,0.08029917650214413,-0.25425497572426387,-0.20633483281919257,-0.03069933892167283,-0.05721818394581727,0.1112118334897897,0.08208428929721444,0.08621349356223791,-0.09737117107027729,-0.05247760233369279,-0.22302149235516538,-0.09785934817597104,0.08000288163894896,-0.005453988599783021,0.02618810716201942,-0.09654446492757958,0.11858882255901969,-0.16884336755634158,0.008975801502145825,-0.02522037942596526,-0.16521513948499383,0.026344693669529066,-0.2028868237660927,-0.0020918106223174293,0.16843397491952605,0.27543706451178557,0.08637049476932195,0.012292634321349612,0.018377799423277424,-0.049845936292921875,0.27629090021460606,-0.011240064176502005,-0.15286159462178756,-0.008941602736052108,-0.19848862278704152,-0.07086882497317595,0.23673951984978545,-0.06940598973980591,-0.1940172221029799,-0.18416996385461176,-0.2744666622854256,0.34612635924083796,-0.08418489370976645,0.031495391496778595,0.08422928835835758,-0.07982267187500061,-0.017956889350855997,-0.04401493193401254,-0.2505778593079473,0.005252934415235837,0.008786148672208999,-0.2407118525348703,-0.020690629761264793,-0.0977492739404351,-0.019451123189381254,0.010697611923283001,0.17066646734170868,-0.07956083992756421,-0.07732552420869793,-0.09379789424624217,0.2215720276287646,0.16234600509657368,0.04252915410407371,-0.04592178695010676,0.0429028052575096,-0.27198785132776576,-0.13431799188572427,0.3228945749061443,-0.14607101891094829,-0.09563550603540283,0.12887162332351387,0.0629766770386364,0.0118751609442065,-0.4616617188840866,-0.2276929195278997,0.037034168454936095,0.08211000570011948,0.1780834783395797,-0.09802912493293453,0.08256882282725511,-0.3301970784602571,-0.008573530646456199,-0.0778821080337916,0.007026444004818128,-0.03421857718616242,-0.18656046774408863,-0.02559262949302969
k-pop2,0.0738512327400795,0.04860689947193367,-0.2689563158615386,-0.006256048112655439,0.16705861372970118,-0.04029630393115516,0.3611574326227377,0.4157638523371621,0.10276776686876274,-0.06802826168590198,0.48672350772541256,0.18102742519069487,0.055679347741049455,0.03232994973596616,0.033749526305495665,0.14623624584393263,0.02472318482300026,-0.20814332798746427,-0.3389670336397166,-0.09798000645413057,-0.10570655329551953,0.24898507803637768,0.23669883532173572,0.06424766849207851,-0.47587352141601114,0.221592568746329,0.014306709368277347,-0.03325582495599323,-0.11903850948562869,0.3184873389399367,0.35794619890475593,-0.025411411695677875,0.0551190670839023,-0.1726405560336311,-0.19771716213573698,-0.2524142358693668,0.17977984079796538,0.1993590878153865,0.22986650127127706,-0.26474591726969227,-0.5284425437121166,0.15573978486211423,0.5482951879522941,-0.04814240093878304,0.2681908720907647,-0.2899106712302068,0.0865119235282653,0.10446739468023052,-0.07137763759045261,-0.15180652904361314,-0.41725853510655764,-0.07296666575395815,-0.15228705221982677,-0.013264431449244116,0.25387348738508486,-0.19580021318208704,0.028479652845684773,0.10867710072363967,0.08966704517895065,-0.030458115196560425,-0.006751485429297752,0.041246179933504136,-0.38156920946605627,0.2333914605906369,-0.37220411910816104,-0.35872272990418824,-0.05450996342656072,-0.05563438900840661,0.07869810463525143,0.08508981947975959,0.16587885663994192,-0.12551449481713478,-0.11317759182475369,-0.33963926070801226,-0.17647944161940823,0.08693516643848515,-0.060968498337570017,0.045579150987678896,-0.1812654023078355,0.1956990936827713,-0.2021285188734451,0.043000155290436,-0.06475869293956245,-0.252596802073148,0.03289464502249211,-0.2082197121064061,-0.12701019010366152,0.19588791942107633,0.3708661934285233,0.19724368785449944,0.0849623831410066,-0.0017516794445522983,-0.17402792274595477,0.4300800265988819,0.05902770447878238,-0.19591352552316765,-0.03578265519264613,-0.2410022790925158,-0.07968424584392352,0.3081945654214684,-0.12904174809308613,-0.27707846274202297,-0.2991044073929251,-0.4013423090162329,0.4256272863289608,-0.09887605280657007,0.10461743203598253,0.07764860962253009,-0.02664502112262738,0.1239270641502126,-0.08939232798748602,-0.38413911343634555,-0.029517726579303724,0.052496066106003374,-0.2901553463720087,-0.10539827205163388,-0.1595475073342308,-0.017775329943281022,0.09356771210639322,0.2207556387639207,-0.03272182143555409,-0.16626349638178767,-0.1819350093878534,0.31183608957557335,0.185239619401523,0.01065658048112739,-0.04558581889302023,0.07469353706238906,-0.3698566851163636,-0.16073543008019536,0.46324614355563015,-0.21361308977117738,-0.17846162018382858,0.09664815255231733,0.08689429258752053,0.014020498337571963,-0.6849202380207113,-0.32460801936239764,-0.02338634989242927,0.109685132407594,0.2520725998435421,-0.216410018188937,0.06360761079601344,-0.457110261685873,-0.09590860884020999,-0.060201848034421614,-0.02594201153921493,-0.05230970369646485,-0.2644743107764607,-0.15350963387444816
lofi,0.3131304160839197,0.1509344291958038,-0.3275629493006977,0.2217129082167814,0.15641582080419672,-0.02916598426573422,0.38659902884615804,0.2726783444055916,-0.13103617220279787,-0.11279092220279524,0.29732561800699026,0.01891360139860147,-0.15915504458041987,-0.13640736538461662,-0.1062450961538474,0.06926288199300751,0.33749284090909104,0.023044527972028,-0.12373654195804462,-0.056025575174824274,-0.056463827797203214,-0.03846917744755229,0.47234778583915643,0.09471873076923269,-0.11246232779720153,0.25065814335664055,0.13047468706293494,-0.01337522902097888,0.1646167290209827,0.2195594283216742,0.12222240821678201,-0.304115291083916,0.09059043444055856,0.4905262316433518,-0.16130862762238074,-0.19032530944056336,-0.06644065297202786,0.056277416083915614,0.29871714335663724,-0.32126476748251315,-0.1222700122377633,-0.012743870629371209,0.28757484440559977,-0.008024066433566379,-0.09680832255244833,-0.10493159965034816,0.14796099475524316,-0.17293651835664162,0.1287563269230777,0.1975097701048939,-0.0020025034965034725,0.05177057517482485,0.25648255681818194,-0.2864072159090952,-0.026618664335664156,-0.16637094405594235,-0.34168188374126374,0.13564800349650222,-0.016215483391608797,-0.052291590909089976,-0.039067070804195435,0.5118690952797201,-0.1971408548951088,-0.12156716346154184,-0.20383882692307398,-0.20043169493007204,-0.26560972202797173,0.06518044580419559,0.20625059702796866,0.16440181555944278,-0.256255617132868,-0.06458331993006888,0.1192856555944024,-0.03643768006992998,-0.10717300349650508,0.04362861538461477,0.1223751678321659,-0.01551054370629339,-0.04712277447552295,-0.10352948601398762,-0.08427929458041718,-0.0045365043706292515,0.05996550874125927,0.10943624125874213,0.0804687805944067,-0.312893572552454,0.051709340909091586,0.455612528846148,0.18330857167832273,0.17600874562936816,0.033269908216783314,-0.12201026223776384,0.02002521416083926,-0.0509814982517486,0.08543195367132941,-0.0752937027972021,0.039801165209790344,-0.12793358129370958,-0.13989260139860243,0.12560765559440817,-0.05641337587412514,-0.15851796416084274,-0.15268911800699395,-0.2339270262237781,0.19071726311188558,0.028857539335663998,-0.1227006337412591,0.33782314248251405,0.01685872377622379,-0.4003492928321669,0.13222323863636465,0.05858922290209799,-0.00291649388111875,0.0023729597902098676,-0.4684789178321737,0.09669988374125753,-0.18265885052447678,-0.015438513986014235,-0.042830620629373005,0.35129494493006497,-0.17389659353146905,-0.06126629020978946,0.01990782080419544,0.2359790917832206,0.5878143697552334,-0.0315167465034967,0.06153750874125812,0.12416398426573506,-0.26221874825175406,-0.06755321328671328,0.40493383129371063,-0.09124416958042016,-0.029152064685315098,0.2869850874125838,0.1425240970279709,-0.19528484790210313,-0.21005000087412876,-0.2792468942307705,0.1768115393356624,0.022308395979020887,0.11588303496503255,0.07348054108391461,0.2948094125874073,-0.0767316101398602,0.13335376311188768,-0.29579269143357084,0.027304548951048363,-0.056886955419579374,-0.39783383916084153,0.14680359527971895
makers,0.25100277198696913,-0.004788050895764948,-0.12927398493485254,0.12229890879478865,0.0435432235342015,0.042916593241042356,0.28084504153094797,0.16568978827361538,-0.07436217915309326,0.006883444218241172,0.28558918566775177,-0.07323794991856687,-0.20778213558631775,0.10229420032573247,-0.07526220887622175,0.09997898289902392,0.23923335097719692,-0.03950056677524341,-0.15220277483713393,0.07327896864820901,-0.04505449918566742,-0.10651164413680816,0.24900497638436517,0.12187737011400522,-0.1293534128664495,0.06485525040716555,0.10598286034201977,0.011556449511400684,0.06783799022801283,0.1282636152280144,0.00807218403908798,-0.32779034690554076,-0.010251697068403912,0.20616601710097648,0.022728085504886402,-0.09227674552117353,0.11173421701954404,0.09756866571661399,0.25104103094462493,-0.21017947271986873,-0.016470282980456004,-0.10572406677524464,0.369816724348523,0.010852294381107486,0.12995452931596224,0.0009746412866449567,-0.06591100162866464,-0.21556768485342206,0.09371609242670932,0.23799339169381364,-0.014537377850162648,-0.03830944910423433,0.14552356433224758,-0.21093662499999832,0.10141658916938054,-0.20080289128664267,-0.16542480333876047,0.06672192752442951,-0.14048682328990347,-0.22493710504885858,0.007751815553745928,0.46361873127035763,-0.023057970276872827,-0.10016150203583096,-0.24521479356677423,-0.07943656066775204,-0.2266596649022807,-0.0867914873778502,0.23021309079804878,0.1048877711726398,0.02245938802931584,-0.01709027198697067,0.15529456718240944,-0.07562665513029207,-0.0419421249999998,0.01551525651465784,0.15922275773615552,0.06897676750814365,-0.19586232125407105,-0.1373286042345281,-0.21225234201954263,0.02905075122149853,-0.08509512092833865,0.04136712866449505,0.11586135627035801,-0.28075853460911887,0.14765236074918786,0.37357831148208764,0.18524907084690628,-0.003553082654723486,-0.04639803013029329,0.12267973208469007,0.17533425162866745,0.12639474226384334,-0.08195490146579852,0.01693612500000038,0.060971636807817045,-0.23753925325733036,-0.029843097719869368,0.1803177614006523,-0.1077288868078186,-0.062275514657980494,0.15687851465798053,-0.10133580985342018,0.29018997760586146,-0.17888630985342013,-0.1836335305374589,0.22079295806188995,-0.12323546335504934,-0.3965234234527702,0.10065654926710196,0.011902883957654762,0.09135477198697076,-0.015373657980456153,-0.2998167996742671,0.009181220276872843,0.03785136685667731,-0.03589509120521164,-0.06965584283387907,0.43371251750814377,-0.16884701017915277,-0.05336630252443036,-0.0535024894136805,0.15578685179153012,0.22798733754071404,0.1492957703583086,-0.059847861563517554,0.016391192182410773,-0.23897997068403704,0.05094832043973957,0.34966953501629033,-0.005604483306188682,0.09301653949511518,0.06891826506514658,-0.0364847105048856,-0.007597377035830574,-0.3007397557003283,-0.14623029519543979,0.20994338680781632,0.003455612377850082,0.1336967915309416,-0.0802340248371337,0.25946046539087697,-0.1304653159609125,0.10555642263843536,-0.19917427442996952,0.13981756229641804,-0.17215912052117235,-0.1196344462540713,0.11552776180781783
meme,0.06521824523814267,-0.06142648567589968,-0.09964394908946332,0.09524787990223929,0.015971826371301123,-0.03580761911787367,0.11967529458525131,0.19626393371943296,-0.021873832492899502,0.08871973899545128,0.32123979122720153,0.011000587937374476,-0.04753196948010399,0.10182780285380807,0.008573836060158343,0.06522603884350082,-0.028983823156367126,-0.10500411529738363,-0.16262324312420456,0.1038154107194036,0.038759137823971855,0.0053453921123909585,0.07364315964591443,0.08310334243499273,-0.2553425077620984,0.11933693741879921,0.028126699777594952,0.02504275401317149,0.050559879263647446,0.10607095082906765,0.0814787566335678,-0.14458949344900454,0.010474377513047644,0.11291205639354318,0.03879588265474813,-0.1147238213286958,-0.005202463831947572,0.04897683896681251,0.2753718013784863,-0.13105524530421214,-0.20110030196199194,-0.1192990011890897,0.3125854804131072,0.06415626058616863,0.07799648840640129,-0.14534024067998821,0.03153015647501695,-0.02200874269482452,0.03682084808315204,0.05987347673573624,-0.10715117299011816,-0.09878194120626878,0.08439189472177813,0.0003174960914250224,0.14264784094862354,-0.15737223215818097,-0.029849069385413058,-0.023234375839517922,-0.05960822975799703,-0.16335169508732983,-0.0010309498821937941,0.15344999372427176,-0.10807074588775013,-0.11925413328782984,-0.12764017871535496,-0.022275176205052045,-0.0038476207914040555,-0.005044629203087124,0.13003980250149266,0.10619167700878435,-0.0697841431308251,-0.09114345940589552,-0.012884197498513501,-0.13813698359499982,-0.04659151025037182,0.08152886591944895,0.08585178999405117,0.0219142964789804,0.055051429040148446,0.020304839913678097,-0.160682951379563,0.013904487767819619,0.06611828093277547,-0.03612160572963266,8.802420011943331e-05,-0.16539692517559612,0.1094018052760002,0.14071528914626855,0.16989387983618337,-0.003281578358624128,-0.07263916849801247,-0.049657753550747516,0.0942463050668307,0.09660466831084655,-0.09665387001519771,-0.05718443727567021,0.006043708563626009,-0.1280319589104409,-0.09054615673926569,0.11596006958359711,-0.0067444618501281825,-0.08776167374981099,-0.042004617158080314,-0.07134552251557763,0.19070110596085066,-0.10623304095743218,-0.06668862711117986,0.07422662770572978,-0.0838835098319903,-0.21061790914495795,0.007939152973816284,-0.05696640380508722,0.054632121374941535,-0.020663417567660332,-0.1259030763217423,0.09831916880628357,-0.01918419194944206,-0.02740196648536746,-0.06007251978507837,0.07765932169202366,-0.08710821617157989,0.03553678413669991,0.038132098892384905,0.14084938389888418,0.12358254907186579,0.08767524688965177,-0.026469965934862238,0.01726471129412444,-0.19184016046065536,-0.1364769939004176,0.15343558604364665,-0.04023912117675969,-0.030180120317968746,0.19234590936516494,0.02849747933411418,0.0002017074406022533,-0.12650488373370866,-0.11193357512165335,0.12808897038293213,0.0653239249994508,0.08309516680245325,0.05641553277696625,0.12448592026513064,-0.16084492698128425,0.16032875148086093,-0.08981081987537264,0.020868311496715117,0.028618656397945585,-0.1319871999867833,0.12452688247856661
metal,-0.18423777816970585,0.006118058592983009,-0.022020977072310433,-0.03944864099549539,-0.2373743519498334,-0.02334700685871278,0.18244370566333185,-0.05750845953360926,0.06243770468351959,0.02144852400548698,0.2605381648050058,0.05726030648638387,-0.1292224142661173,0.1507636323731087,-0.058378615520281715,0.09981676366843102,-0.054268565745639444,-0.1042692341759727,-0.152740299823642,0.0355568300999409,-0.09018234371937758,0.035700200078385,0.06840866215951504,0.07653650734861943,-0.15583251087595498,0.14083752537723307,-0.014675061924359483,-0.11494963766412153,0.03615970546736977,0.14229753458750113,-0.019726899862826344,0.009372316284540114,0.03732064530668154,0.0390125959239649,0.14079426023907693,-0.14299297883598217,0.00036821144424905883,-0.003229917695472604,0.2988611726435398,-0.10963369508132852,0.01981910072506131,-0.22420272819909925,0.5161979755046107,-0.07177753399960744,0.00584114128943789,0.07074768998628132,0.004086863805605187,-0.12272755026455084,-0.02003336018028644,0.34493756476582355,0.13711662943367142,-0.008238070546737095,-0.016232179502254713,-0.12621890025475474,0.2985980278267561,-0.2692762281011154,0.01716123339212224,0.002040463648832332,-0.2293346323731127,-0.3789776572604333,0.13914357593572982,0.3039848005095012,-0.2072787687634789,-0.19196100274347552,-0.30726940995493385,-0.23264762081128618,-0.08331817009602353,0.1496051199294521,0.16686799451302622,0.2511270640799489,0.23737638898687444,-0.19109388105035896,0.1708296523613604,-0.12354066059181008,-0.19141743993729504,0.13939373936900143,0.06391322692533868,0.15050484460121527,-0.026893016068979925,0.08018153106016238,-0.3264097568097225,-0.03033039231824434,-0.202324038408782,0.10415576327650033,0.05712454379776455,-0.15060570448755184,0.28360028669408704,0.21627182343719073,0.2806496456986113,-0.028292181265920285,-0.21507894924553717,0.10837597080149568,0.12685633490104004,0.2842378516558714,-0.12121889496374133,0.14073139114246555,-0.09349423417597957,-0.3577966010190087,-0.16379512737605262,0.23115743288262366,0.002041496962571826,-0.23374122770918848,-0.0941223513619412,-0.03246319263178611,0.3130683552812082,0.023838331373700953,0.008061293160885987,0.14341257123260917,-0.22774534626689066,-0.3366503735057659,0.09860787830688011,0.07088159063296116,0.20515601332550296,0.17705920203801512,-0.17736432961003576,0.10943855379188752,-0.10754854634528929,-0.04856150656476563,-0.07042301979227808,0.03180113874191797,-0.04571933196159063,0.0950726551048438,-0.10381146991965376,0.15656431373701052,0.018158601410934304,0.2471048961395274,-0.11151592690574223,0.050532129335682706,-0.17741794101508893,0.052357860670194246,0.3542580076425679,-0.16200615069566754,-0.020262239466981306,0.19188057358416324,-0.04620316852831952,-0.20994936586322055,-0.09930621183617692,-0.27993916519693574,0.29063418244170136,-0.19159428179502241,0.07598025671173425,-0.086433661571622,0.10661936116010269,-0.16867075249853045,0.2799824117185939,-0.1769251808739951,-0.03457551851851666,-0.07003119733490296,-0.2161359572800308,-0.02736420987654306
metalcore,0.042170211886298006,0.10605461498708997,-0.07285717760551902,0.06852296261843344,-0.19037337174849553,0.13149443298880562,0.2649348733850561,0.09091810077518628,0.07392219629629936,-0.028542761843240942,0.4057241626184153,-0.042719375538331564,-0.1595339806201495,0.1670774739018199,-0.06880729819121302,0.11343494694230118,0.09171408552972507,-0.09388803867355283,-0.07081757441860409,0.04162353626184121,0.003411328423771665,0.0261466503875942,0.08928201119725077,0.08518990120586424,-0.13696612919897755,0.09372834771748398,0.11161478613263952,0.10185561688199542,-0.08526438802755854,0.19797769078380983,0.02181608027561912,-0.04824397975883295,0.03886971119724263,-0.0004734353143810383,0.1383369457364487,-0.10795881360896699,0.05925378957795787,0.07727886692507263,0.2506694677863872,-0.055099932041340796,-0.17341458148150218,-0.1209738052540944,0.5399469248061647,0.0675201272179211,-0.0008112739879409333,-0.04560329328164998,-0.0005845630490951086,-0.2242430929371414,0.01062984168819859,0.1988570183462536,-0.02785347028423548,0.072358672351418,0.14909120516797844,-0.2382593326442496,0.1187047276485725,-0.3336456168819907,-0.04156859905253863,-0.107815553316111,0.016405977088717025,-0.20929805417742264,-0.03251479181739856,0.20132162876832096,-0.07233197975882283,-0.19869873979327066,-0.2343640677863711,-0.06926478596038783,-0.11254414978466462,0.051592218260115244,0.06476916106804033,0.13327446330749296,0.05522619319552075,-0.04801542549526291,-0.002671950043066447,-0.014473239190353216,-0.16706761205855036,0.01158667545219617,0.07811926416882761,-0.019236985701979396,-0.0362127199827744,0.011902936606374464,-0.2883365212747316,0.06300862497847373,-0.083346114125756,0.0903436869939691,-0.011806302670116607,-0.08304446950903811,0.06441392222223238,0.19143254151592798,0.21118048733853234,-0.06810851774333013,-0.01916642704564733,-0.0027786664944046474,0.15240878122308538,0.22906247062875046,-0.11724319939707897,-0.04349570723514127,-0.14668277243757138,-0.32751423531441964,-0.1235192025839708,0.056279276227393836,0.08178102566753455,-0.2042009571920748,-0.1470987213608889,-0.10635426270456691,0.34728392093024046,-0.05832777631352675,-0.0773553590869974,0.20407336089577044,-0.10583463763996737,-0.22901079302324473,0.021022135831180944,-0.00113912704564909,0.15376167372954566,0.0425182977605541,-0.19246116709732355,0.11525820947458239,-0.2362178441860464,0.02673857863910066,-0.09742578044789696,0.1592549937984368,-0.13125286434107972,0.09708399242032778,-0.15237340456501566,0.29051680869938046,-0.005046668389321193,0.15369057820844167,-0.08970587364341502,0.04195731162789927,-0.07904160818258449,-0.035398278639100694,0.25964644806200937,-0.17815686950904602,-0.11894328079241848,0.2309951132644145,0.009493211369506496,-0.04172410482342581,-0.14498105788112892,-0.17986188742463016,0.08974405236865632,-0.14866686287684053,0.014308073815679742,0.014807761326442676,0.1823045721791672,-0.22710245047375482,0.14138578716623154,-0.18741059819120764,0.027647367786389,-0.08616981524548235,-0.09430745099051567,0.14952959336777866
metalcore2,0.04900622037836424,0.2487174928642607,-0.10662674709591839,0.03769970809823772,-0.3442737344838873,0.25943329239959717,0.4566746310986256,0.13562156986391016,0.23826057865912892,-0.15816840109524302,0.5164764389313135,-0.10959587321606336,-0.22916474029206002,0.17857164188516847,-0.12812453053435174,0.18284324759375278,0.13701601228012172,-0.11559862993692872,-0.10227128493196376,0.043899476435446644,-0.04816530567541104,0.07326809508794509,0.09375571058746217,0.10230668635912314,-0.13928085263857326,0.11065818420179441,0.13733280999003966,0.1427622580484511,-0.19930830119483176,0.29780205077996347,-0.0639677062728211,0.05132450597410962,0.06717351941586569,-0.1454618131430355,0.16358298406904284,-0.1460780091271194,0.012773443079986265,0.12620267059409448,0.23998929289743742,0.027316009127119036,-0.24377053750417102,-0.1693122444407671,0.8182201578160608,0.0974453083305753,-0.013618174742781127,0.020452062562229305,0.0657985260537592,-0.39740340623962395,-0.04620692515764873,0.3299615974112072,-0.08885719615001204,0.18067093129769624,0.1912578604381173,-0.37055115847989567,0.14691018801858532,-0.5388937313309095,-0.0776287490872814,-0.2629221641221554,0.05223107915698299,-0.19634733504814514,-0.06890189478925071,0.18492820444738017,-0.09113591619647476,-0.21986203153002254,-0.2969260414868849,-0.12315053684036625,-0.19479776070360788,0.21543895867906313,-0.012982121141718171,0.10930809691337819,0.0875654853966196,-0.08444922104214747,-0.05446559259874349,-0.037506427978762615,-0.30057777829403504,0.0031250272154002452,0.09682653501494283,-0.05672760454695971,-0.03212968685695127,-0.001680834550281705,-0.440713762031177,0.1802799862263639,-0.22085488665782604,0.22550281397279212,-0.12998376385663446,-0.036397483571195495,-0.03580480152671581,0.15004186558248322,0.2908428471622977,-0.05413225954198534,0.024088099402590938,-0.07196991204779947,0.1608623874875594,0.2763868378692084,-0.025869286923331902,-0.002268314968469396,-0.3245916589777501,-0.4841780462994032,-0.2103182016262739,0.002874492200465875,0.1943537432791377,-0.3226198778625766,-0.2794465151012112,-0.06593170345171262,0.45263422685031024,-0.05706881695984447,-0.09115140889478475,0.25440613508129534,-0.07816976203120064,-0.23174769034186682,-0.0007518023564563462,0.040078819946898554,0.2874481075340098,0.1273175625622329,-0.23040569980086184,0.1567699220046322,-0.43276059591765337,0.11863093162961016,-0.1370501070361725,0.1124017394623362,-0.15367700614005955,0.20762391005642794,-0.26580452323263953,0.42320062296714295,-0.13565040225689295,0.1803308703949408,-0.13630918287421934,0.054318283936275746,-0.04314130567540984,-0.020088748589445836,0.3297711354132064,-0.3248627776302588,-0.24879580185861452,0.2588505512778054,0.02092692117490842,-0.0978540423166296,-0.06157719382674422,-0.21384711931628425,0.08774874792565315,-0.28183953634252407,-0.046146714404247224,-0.016099054098904615,0.21701052057749395,-0.24090915964156775,0.14680965200796894,-0.2530635335214162,0.049183234317960706,0.006606184699636214,-0.04692453086624171,0.1810712829405778
otacore,-0.01917359889620766,0.015813172868079206,-0.05369048460032067,0.059674213993233194,0.21074220758412046,0.023541922734555576,0.20779866565782878,0.3193054484600315,0.028170798290902684,0.06936131369058351,0.36464661224851985,0.030605295887484684,-0.004534646430478652,0.1564745939113391,-0.020029575040056688,0.08371267366921394,-0.07868106711767874,-0.09312455563467918,-0.07540297454157019,0.027853370482464074,0.13137818034537804,-0.02938197489763251,0.11345247035784731,0.04525446911162686,-0.3867541926295166,0.17891830514509546,0.005980114473919754,-0.03907538632722025,0.008627106640555644,0.23015473740431347,0.04251633683460723,-0.19401522965996293,0.08772605483354355,0.17893175022253277,0.016666063022967144,-0.2026003793840131,0.0219201217731909,0.03449288926473276,0.42002774541569854,-0.16012792754139302,-0.32876332846715145,-0.0345871568452922,0.44652244418728004,0.13463997062488697,0.0968557060708582,-0.12671863984333318,-0.05317131636104857,0.06724356418016647,0.08505927612604909,0.08579763539255925,-0.09465557806658297,-0.14127708776927173,0.08096116628093297,0.037576837813779476,0.16246568595335784,-0.1292414959943043,-0.09313757646430289,0.03354404931458104,-0.0415942935730814,-0.18645926580024888,-0.04551686398433361,0.09600964554032763,-0.2235826165212751,0.002360289478368972,-0.0914588351433115,-0.06672661189246758,0.07988335392558057,-0.04084294908314027,0.0845941253338099,0.14791681413565977,0.0010593161830157666,-0.08993087235178797,-0.0643664294107174,-0.3403886514153472,-0.0432162414100057,0.17334873437778103,0.15183721452732854,-0.011687661741142769,0.07391121310308205,0.05024238721737551,-0.20349269841552747,-0.012052528039879181,0.08173471639665296,0.017429739540679515,-0.057895334876268495,-0.20713056239985123,0.04252477799536911,0.09848148371016502,0.2914485940893818,0.015156335232331106,-0.0066409506854190935,0.009810448638064838,0.07214983051451168,0.14798632063378883,-0.11405262150614273,-0.07080975645362272,0.06577623820544932,-0.1315551913832986,-0.13720921933416835,0.1323708504539719,-0.014841304967064584,-0.08051276286273583,-0.12415178992344805,-0.14621904094711877,0.20977956222181754,-0.11377536496350422,-0.08504451628983509,0.14569142656221892,0.061454046644116495,-0.20376687733665735,-0.08866573295353597,-0.1103427479081314,0.07550987626846972,0.09684493662097256,-0.09785788908670198,0.09157857966886385,-0.04569281199928659,-0.003855229837990378,0.07952124301228428,0.007507067295709417,-0.025902127826240056,0.030214633790279985,0.042837142958874655,0.14621399893181963,0.18943892469290052,-0.003359576286273743,0.08747314313690496,0.10210252964215767,-0.18134528983442963,-0.1996292433683431,0.21128726580024756,-0.0685429362649096,-0.11459511963681639,0.38831566939648005,0.04157721114474075,0.03777264269182965,-0.25001508367456327,-0.07964348940715973,0.09793441285383628,0.02961269040412991,0.1659219222004648,-0.04627663379027998,0.15991405946234857,-0.05702620900836745,0.17510411945878385,-0.14950967722984154,0.05302947249421404,-0.011445506498130562,-0.21123658732419173,0.06982584867366932
philippines,0.0011619405940593982,0.003819133663366297,-0.11690574257425741,0.011419886138613939,0.17931025742574286,0.08742526732673288,-0.013445163366336575,0.45172187623762283,0.06678009900990114,-0.10588442574257403,0.35431074752475256,0.08166377722772294,-0.1351988168316835,-0.09160159405940588,0.04613271782178205,0.2752486683168321,0.06419685148514853,-0.23626219306930674,-0.04388065841584185,0.013728237623762381,0.0069832029702970744,-0.12878142574257392,0.09182856930693081,0.2056947227722768,-0.05623027227722772,0.05955372772277217,0.014580702970297095,0.01236737623762379,0.18575131683168306,0.21671774752475265,0.20461069306930751,-0.17888653465346485,-0.1702463910891084,0.05864131188118809,0.09810229702970266,-0.4003129405940592,0.15205513861386155,0.07252121782178216,0.4422816138613867,-0.06881134653465348,-0.3878637871287135,0.14316069801980233,0.315008485148515,-0.008059886138613815,-0.04034994059405933,-0.12195655445544543,-0.027558762376237632,0.03354713366336628,0.004380688118811911,-0.2550767475247527,-0.31575139603960495,0.00802859405940598,0.04803282178217842,-0.24813300495049467,0.3965896683168326,-0.16599117326732651,-0.15833942079207874,0.1767633217821776,0.010631272277227767,-0.2774071089108922,-0.10317343564356411,0.20757623267326833,-0.16280869306930645,-0.1765227178217825,-0.3183048811881196,-0.022845212871287157,0.10272833168316851,-0.1292338217821779,0.3488027376237634,0.02609908910891093,-0.110532727722772,-0.29759963861386163,-0.0981887376237625,-0.27445924752475315,0.051570405940593846,0.1974730346534652,0.04295831683168316,-0.002184326732673315,-0.11089889603960387,-0.1169727376237621,-0.22866446534653423,-0.07955817326732689,-0.06456947029702968,-0.09664427722772265,0.06040095049504966,-0.3765959603960406,0.13427943069306958,0.008810594059405907,0.26677641089108933,0.14458231683168327,-0.2800864207920796,0.15134775247524704,-0.0077763316831683275,0.23111980693069234,-0.016148569306930663,-0.1486821287128715,-0.005554584158415825,-0.06716622772277227,0.16812013861386116,0.24837889108910916,0.08432725742574246,-0.21450645544554411,-0.05955977722772256,-0.2447816287128718,0.21573357425742612,-0.30530927722772305,-0.05218758910891081,0.267792722772277,-0.0640907277227722,-0.27156265346534614,-0.06443560396039613,-0.312120826732674,-0.13771973762376272,0.042814930693069256,-0.0523709405940597,0.14494876237623794,-0.029078267326732625,-0.09660143069306919,0.012031470297029752,0.12438626732673264,-0.24471403960396065,0.08400764851485161,0.028268381188118828,0.04895232178217813,0.19543214851485122,0.053483346534653455,0.06397144059405935,-0.04555002475247533,-0.27354211881188195,-0.16944416336633722,0.3671633712871289,-0.189831965346534,0.11379384158415884,0.32550830198019737,0.2400087821782185,-0.16462634653465302,-0.35892281683168387,-0.15702434158415873,0.1460019801980203,0.3286349851485156,0.10233106435643564,-0.17094520792079193,0.13247098514851463,-0.1478755594059404,0.10635976237623779,-0.20605082178217793,0.08319794059405908,-0.02047792079207919,-0.12409188613861367,0.12359120792079191
pop,0.10536349059798834,-0.06750894487268147,-0.07983021440667742,0.17654528372461464,0.05820138986217946,0.07794370693181693,0.14872797436344737,0.19076211063420825,-0.08417189327845878,0.021705167717824617,0.35309550613180135,-0.006879604473255064,-0.08007286603597245,0.1089168777738865,-0.04179379482013268,0.07594604800281089,0.060657174667118646,-0.18397060736394538,-0.13007208184418886,0.01791047880168167,-0.014355731108389778,0.006597037286850484,0.099118228772479,0.15873873586779103,-0.17578629409016264,0.04489518441952575,0.1347678873802695,0.037201843932506695,0.09017507559565793,0.07270733292454504,0.11149131753680123,-0.14221240154170134,0.007038865977574714,0.08922697161878629,0.027079657439852505,-0.08649000458421678,0.1221878156096622,0.0485215931441151,0.2550296412929094,-0.10089399915324011,-0.18975435861947623,-0.07593309723195535,0.30595487736507554,0.05463063393482602,0.06808263302966658,-0.11811900087596058,0.04175210193295678,-0.07955328389979786,0.030628426973841143,0.07016062529198339,-0.07579183914388549,-0.04048524827727304,0.04800393009811107,-0.12757408844314594,0.0750223348224612,-0.1768958935996315,-0.0018989629467397887,0.049737584238497515,0.006722496788133141,-0.13779095004087707,0.057498461078013284,0.2326105297827924,-0.07045708543564154,-0.14586502747605673,-0.20516876030717873,-0.003968427528609956,-0.021193883292464393,-0.016537710318851387,0.1867679369013946,0.0911726971794031,0.05794833248656786,-0.08105530994510475,0.048944352662936494,-0.008844220012849293,-0.07213981096706701,0.037344981896759465,0.1692802101436335,0.0463835261329119,-0.038604031622270635,0.016915041637467987,-0.10302068424434178,-0.0027933400198605213,0.03211043871175014,-0.11613427654170452,-0.004356486918944186,-0.1631390664272115,0.13924389009578048,0.2266475709530647,0.15537912371525375,0.013865467852137443,-0.08448622941484386,0.07416397100559934,0.09514471142839985,0.14911550070075047,-0.1647004576909397,-0.09282329517052065,0.017835788805184247,-0.15022112502918597,-0.03360800163513084,0.1621991428404504,-0.06389320176360816,-0.13367699033520355,0.024914404169595013,-0.19216424979562188,0.3240871504029346,-0.10315571782293839,-0.0941614259810765,0.1352261057287951,-0.14699354922915028,-0.25313602919878586,-0.032080008321661344,-0.05542833330413783,0.10794975729970356,-0.020114779227985095,-0.21033039047533245,0.062450152797241684,-0.06553476585493877,-0.07556598788249894,-0.11099742539711471,0.19720501532936552,-0.15037528906796332,0.0369672493868253,-0.012720979385665505,0.19135991053489437,0.1308884895176491,0.046503462508759454,0.011082576004437865,0.006492064032937382,-0.16073866526512132,-0.06314778935997176,0.17083058096824294,-0.06579593363115781,0.044420798294785194,0.1871239244919366,0.05777438440201136,-0.007696696945805496,-0.3126224977809091,-0.16831603848399293,0.10742221411470107,0.03466067685704521,0.15758519446388158,0.046485372050923165,0.13779920345713284,-0.28468995900487365,0.08393789830062945,-0.05373373665615625,0.06591652286265402,0.004823535067743603,-0.15420555004675837,0.08843947929806129
